{"learner":{"attributes":{},"feature_names":["amount","oldbalanceOrg","newbalanceOrig","oldbalanceDest","newbalanceDest","type_CASH_OUT","type_TRANSFER","fraud_share","balanceChange_Dest"],"feature_types":["float","float","float","float","float","int","int","float","float"],"gradient_booster":{"model":{"gbtree_model_param":{"num_parallel_tree":"1","num_trees":"100"},"iteration_indptr":[0,1,2,3,4,5,6,7,8,9,10,11,12,13,14,15,16,17,18,19,20,21,22,23,24,25,26,27,28,29,30,31,32,33,34,35,36,37,38,39,40,41,42,43,44,45,46,47,48,49,50,51,52,53,54,55,56,57,58,59,60,61,62,63,64,65,66,67,68,69,70,71,72,73,74,75,76,77,78,79,80,81,82,83,84,85,86,87,88,89,90,91,92,93,94,95,96,97,98,99,100],"tree_info":[0,0,0,0,0,0,0,0,0,0,0,0,0,0,0,0,0,0,0,0,0,0,0,0,0,0,0,0,0,0,0,0,0,0,0,0,0,0,0,0,0,0,0,0,0,0,0,0,0,0,0,0,0,0,0,0,0,0,0,0,0,0,0,0,0,0,0,0,0,0,0,0,0,0,0,0,0,0,0,0,0,0,0,0,0,0,0,0,0,0,0,0,0,0,0,0,0,0,0,0],"trees":[{"base_weights":[-2.5065975E-2,-1.1444507E0,2.9378378E0,-1.3712829E0,1.4737019E-1,1.87048E0,1.4738439E-1,1.473233E-1,-1.4345601E0,1.4590599E-1,-1.131483E0,-1.5044835E0,-7.3783237E-1,1.3668866E-1,-7.513199E-2,1.465129E-1,-1.5096693E0,1.4507866E0,-7.5663775E-2,-7.4895315E-2,-7.56075E-2,3.6283236E-2,1.07347585E-1],"categories":[],"categories_nodes":[],"categories_segments":[],"categories_sizes":[],"default_left":[0,0,0,0,0,0,0,0,0,0,0,0,0,0,0,0,0,0,0,0,0,0,0],"id":0,"left_children":[1,3,5,7,-1,9,-1,-1,11,-1,13,15,17,-1,-1,-1,19,21,-1,-1,-1,-1,-1],"loss_changes":[7.760508E5,1.5763156E5,6.69E2,4.3966656E4,0E0,1.8569915E3,0E0,0E0,7.72475E3,0E0,2.2389522E2,3.3188438E3,2.4552947E4,0E0,0E0,0E0,1.9375E0,1.9091289E3,0E0,0E0,0E0,0E0,0E0],"parents":[2147483647,0,0,1,1,2,2,3,3,5,5,8,8,10,10,11,11,12,12,16,16,17,17],"right_children":[2,4,6,8,-1,10,-1,-1,12,-1,14,16,18,-1,-1,-1,20,22,-1,-1,-1,-1,-1],"split_conditions":[7.613319E4,1.0023482E0,7.959491E4,1E0,1.4737019E-1,7.993847E4,1.4738439E-1,1.473233E-1,4.411687E4,1.4590599E-1,1E0,2.806E3,7.622576E4,1.3668866E-1,-7.513199E-2,1.465129E-1,3.803662E4,5.5177E4,-7.5663775E-2,-7.4895315E-2,-7.56075E-2,3.6283236E-2,1.07347585E-1],"split_indices":[1,7,1,5,0,0,0,0,1,0,5,0,0,0,0,0,3,1,0,0,0,0,0],"split_type":[0,0,0,0,0,0,0,0,0,0,0,0,0,0,0,0,0,0,0,0,0,0,0],"sum_hessian":[2.3398578E5,1.6982611E5,6.4159668E4,1.6090689E5,8.919222E3,5.8841315E2,6.3571258E4,2.323391E3,1.585835E5,4.3621027E2,1.5220287E2,1.4411862E5,1.4464876E4,1.2776971E1,1.3942589E2,1.6766972E2,1.4395095E5,3.7840007E3,1.0680875E4,2.5175787E4,1.18775164E5,1.854454E3,1.9295468E3],"tree_param":{"num_deleted":"0","num_feature":"9","num_nodes":"23","size_leaf_vector":"1"}},{"base_weights":[-2.665078E-2,-1.1111389E0,2.672229E0,-1.3347274E0,1.3402778E-1,1.7573512E0,1.3403903E-1,1.3399081E-1,-1.3975165E0,1.3261253E-1,-1.0653219E0,-1.4668369E0,-7.149234E-1,1.2621646E-1,-7.3270306E-2,1.3334677E-1,-1.471974E0,1.3414361E0,-7.3793076E-2,-7.2973005E-2,-7.3730886E-2,3.6233302E-2,1.00839056E-1],"categories":[],"categories_nodes":[],"categories_segments":[],"categories_sizes":[],"default_left":[0,0,0,0,0,0,0,0,0,0,0,0,0,0,0,0,0,0,0,0,0,0,0],"id":1,"left_children":[1,3,5,7,-1,9,-1,-1,11,-1,13,15,17,-1,-1,-1,19,21,-1,-1,-1,-1,-1],"loss_changes":[6.829483E5,1.4111666E5,5.1859375E2,3.9624625E4,0E0,1.5747572E3,0E0,0E0,7.3219062E3,0E0,2.1986177E2,2.9874062E3,2.2330826E4,0E0,0E0,0E0,2.46875E0,1.6041567E3,0E0,0E0,0E0,0E0,0E0],"parents":[2147483647,0,0,1,1,2,2,3,3,5,5,8,8,10,10,11,11,12,12,16,16,17,17],"right_children":[2,4,6,8,-1,10,-1,-1,12,-1,14,16,18,-1,-1,-1,20,22,-1,-1,-1,-1,-1],"split_conditions":[7.613319E4,1.0023482E0,7.959491E4,1E0,1.3402778E-1,7.993847E4,1.3403903E-1,1.3399081E-1,4.411687E4,1.3261253E-1,1E0,2.806E3,7.622576E4,1.2621646E-1,-7.3270306E-2,1.3334677E-1,3.803662E4,5.645141E4,-7.3793076E-2,-7.2973005E-2,-7.3730886E-2,3.6233302E-2,1.00839056E-1],"split_indices":[1,7,1,5,0,0,0,0,1,0,5,0,0,0,0,0,3,1,0,0,0,0,0],"split_type":[0,0,0,0,0,0,0,0,0,0,0,0,0,0,0,0,0,0,0,0,0,0,0],"sum_hessian":[2.3333278E5,1.6644923E5,6.688354E4,1.5718122E5,9.268009E3,6.2129865E2,6.626224E4,2.4198784E3,1.5476134E5,4.7178458E2,1.4951407E2,1.4049255E5,1.4268799E4,1.4460598E1,1.3505347E2,1.7373146E2,1.4031881E5,3.8537258E3,1.0415072E4,2.4569994E4,1.1574883E5,2.0152961E3,1.8384298E3],"tree_param":{"num_deleted":"0","num_feature":"9","num_nodes":"23","size_leaf_vector":"1"}},{"base_weights":[-2.7179295E-2,-8.6149806E-1,1.2349676E-1,1.2349608E-1,-1.1219296E0,-1.1473215E0,2.5150075E0,-9.9431545E-1,-1.2356718E0,1.3228135E-1,1.233572E-1,1.2267913E-1,-1.0021074E0,1.19952E-1,-1.2368705E0,-4.4196256E-2,-5.3974684E-2,-6.1892945E-2,1.3292728E-1],"categories":[],"categories_nodes":[],"categories_segments":[],"categories_sizes":[],"default_left":[0,0,0,0,0,0,0,0,0,0,0,0,0,0,0,0,0,0,0],"id":2,"left_children":[1,3,-1,-1,5,7,9,11,13,-1,-1,-1,15,-1,17,-1,-1,-1,-1],"loss_changes":[4.825104E5,1.5061716E5,0E0,0E0,1.4872031E4,2.1602656E3,4.53125E-1,1.5750781E3,4.4460938E2,0E0,0E0,0E0,5.332031E2,0E0,3.934375E2,0E0,0E0,0E0,0E0],"parents":[2147483647,0,0,1,1,4,4,5,5,6,6,7,7,8,8,12,12,14,14],"right_children":[2,4,-1,-1,6,8,10,12,14,-1,-1,-1,16,-1,18,-1,-1,-1,-1],"split_conditions":[1.0023482E0,1E0,1.2349676E-1,1.2349608E-1,3.2489425E6,3.4987394E5,7.622576E4,2.806E3,2.806E3,1.3228135E-1,1.233572E-1,1.2267913E-1,1.673683E5,1.19952E-1,3.9804197E5,-4.4196256E-2,-5.3974684E-2,-6.1892945E-2,1.3292728E-1],"split_indices":[7,5,0,0,4,4,0,0,0,0,0,0,4,0,8,0,0,0,0],"split_type":[0,0,0,0,0,0,0,0,0,0,0,0,0,0,0,0,0,0,0],"sum_hessian":[2.3159673E5,1.7359652E5,5.800022E4,1.2586211E4,1.610103E5,1.5989466E5,1.1156442E3,5.8535156E4,1.013595E5,2.8462656E2,8.310177E2,1.3127803E2,5.840388E4,3.2759285E1,1.0132674E5,2.3115275E4,3.52886E4,1.0130172E5,2.502145E1],"tree_param":{"num_deleted":"0","num_feature":"9","num_nodes":"19","size_leaf_vector":"1"}},{"base_weights":[-2.6992805E-2,-1.0569246E0,2.3255296E0,2.2508385E0,-1.2785542E0,1.5834937E0,2.3321393E0,9.208525E-1,1.1494962E-1,1.1492198E-1,-1.3407028E0,1.1878214E-1,-1.0518476E0,2.414259E0,1.1495755E-1,1.1447387E-1,-5.917525E-1,-1.4121989E0,-6.47876E-1,1.0828643E-1,-7.0369095E-2,1.1494845E-1,2.5320027E0,-7.04143E-2,1.3070728E-1,-1.412931E0,1.1074998E-1,1.3126765E0,-1.4144588E0,1.2764966E-1,1.1546367E-1,-7.02029E-2,-7.0740834E-2,1.2639175E-1,4.9608994E-2,-7.0902996E-2,1.0410058E-1],"categories":[],"categories_nodes":[],"categories_segments":[],"categories_sizes":[],"default_left":[0,0,0,0,0,0,0,0,0,0,0,0,0,0,0,0,0,0,0,0,0,0,0,0,0,0,0,0,0,0,0,0,0,0,0,0,0],"id":3,"left_children":[1,3,5,7,9,11,13,15,-1,-1,17,-1,19,21,-1,-1,23,25,27,-1,-1,-1,29,-1,-1,31,-1,33,35,-1,-1,-1,-1,-1,-1,-1,-1],"loss_changes":[5.562942E5,1.1706772E5,3.3921875E2,6.4010547E2,3.327278E4,1.2975107E3,1.8215625E2,7.30172E2,0E0,0E0,7.2857812E3,0E0,1.678512E2,2.6347656E2,0E0,0E0,4.4352432E2,3.5721875E2,2.0685324E4,0E0,0E0,0E0,3.9933594E1,0E0,0E0,2.5E-1,0E0,1.5042822E3,1.275293E2,0E0,0E0,0E0,0E0,0E0,0E0,0E0,0E0],"parents":[2147483647,0,0,1,1,2,2,3,3,4,4,5,5,6,6,7,7,10,10,12,12,13,13,16,16,17,17,18,18,22,22,25,25,27,27,28,28],"right_children":[2,4,6,8,10,12,14,16,-1,-1,18,-1,20,22,-1,-1,24,26,28,-1,-1,-1,30,-1,-1,32,-1,34,36,-1,-1,-1,-1,-1,-1,-1,-1],"split_conditions":[7.613319E4,4.424445E4,7.959491E4,1.0023482E0,1E0,7.993847E4,1.0023482E0,2.806E3,1.1494962E-1,1.1492198E-1,4.411687E4,1.1878214E-1,1E0,1E0,1.1495755E-1,1.1447387E-1,4.411687E4,3.1571238E5,7.622576E4,1.0828643E-1,-7.0369095E-2,1.1494845E-1,2.810996E6,-7.04143E-2,1.3070728E-1,3.803662E4,1.1074998E-1,5.182414E4,3.271378E6,1.2764966E-1,1.1546367E-1,-7.02029E-2,-7.0740834E-2,1.2639175E-1,4.9608994E-2,-7.0902996E-2,1.0410058E-1],"split_indices":[1,0,1,7,5,0,7,0,0,0,1,0,5,5,0,0,1,0,0,0,0,0,3,0,0,3,0,0,3,0,0,0,0,0,0,0,0],"split_type":[0,0,0,0,0,0,0,0,0,0,0,0,0,0,0,0,0,0,0,0,0,0,0,0,0,0,0,0,0,0,0,0,0,0,0,0,0],"sum_hessian":[2.2959295E5,1.5968402E5,6.9908945E4,1.0026848E4,1.4965717E5,6.1934033E2,6.92896E4,3.5105347E2,9.675795E3,2.5551975E3,1.4710197E5,4.7627643E2,1.430639E2,1.9836719E4,4.9452883E4,1.8402847E2,1.67025E2,1.3334083E5,1.3761137E4,1.3728639E1,1.2933527E2,1.0033169E4,9.803549E3,1.3356665E2,3.345834E1,1.3331453E5,2.6296926E1,3.8679795E3,9.893157E3,8.949641E3,8.539089E2,2.349539E4,1.0981914E5,8.058236E2,3.062156E3,9.883572E3,9.584861E0],"tree_param":{"num_deleted":"0","num_feature":"9","num_nodes":"37","size_leaf_vector":"1"}},{"base_weights":[-2.5558153E-2,-1.0317675E0,2.1794698E0,1.6360618E0,-1.306336E0,1.5065691E0,2.1854773E0,2.0224514E0,-6.9507025E-2,-1.3773358E0,-6.260699E-1,2.2039855E0,-6.892576E-2,2.2532716E0,1.07903324E-1,7.348298E-2,2.0950382E0,-1.384097E0,1.07492045E-1,1.2319852E0,-1.3848113E0,1.1077422E-1,-4.308582E-2,2.3496294E0,1.07895434E-1,1.9977235E0,-6.9837466E-2,9.6414214E-1,2.1256375E0,-1.3844665E0,1.424163E-1,6.385211E-1,1.8590689E0,-6.946954E-2,1.00300305E-1,1.1834444E-1,1.08329356E-1,-6.077379E-2,1.05892316E-1,1.0752423E-1,-5.140456E-2,1.005735E-1,1.0789593E-1,-6.924337E-2,1.00916505E-1,9.6039325E-2,-7.754015E-2,1.1810712E-1,7.98489E-2],"categories":[],"categories_nodes":[],"categories_segments":[],"categories_sizes":[],"default_left":[0,0,0,0,0,0,0,0,0,0,0,0,0,0,0,0,0,0,0,0,0,0,0,0,0,0,0,0,0,0,0,0,0,0,0,0,0,0,0,0,0,0,0,0,0,0,0,0,0],"id":4,"left_children":[1,3,5,7,9,11,13,15,-1,17,19,21,-1,23,-1,25,27,29,-1,31,33,-1,-1,35,-1,37,-1,39,41,43,-1,45,47,-1,-1,-1,-1,-1,-1,-1,-1,-1,-1,-1,-1,-1,-1,-1,-1],"loss_changes":[5.0252138E5,1.1392283E5,2.8359375E2,1.6972734E4,6.809797E3,1.2730515E3,1.258125E2,1.8205742E3,0E0,3.0479531E3,1.8791738E4,1.9841553E1,0E0,1.808125E2,0E0,1.3130994E3,4.2732812E2,2.0323438E2,0E0,1.437209E3,1.4975195E2,0E0,0E0,2.6621094E1,0E0,8.0162415E1,0E0,7.791272E2,4.0183594E1,1.7667188E2,0E0,5.5818994E3,2.4394775E2,0E0,0E0,0E0,0E0,0E0,0E0,0E0,0E0,0E0,0E0,0E0,0E0,0E0,0E0,0E0,0E0],"parents":[2147483647,0,0,1,1,2,2,3,3,4,4,5,5,6,6,7,7,9,9,10,10,11,11,13,13,15,15,16,16,17,17,19,19,20,20,23,23,25,25,27,27,28,28,29,29,31,31,32,32],"right_children":[2,4,6,8,10,12,14,16,-1,18,20,22,-1,24,-1,26,28,30,-1,32,34,-1,-1,36,-1,38,-1,40,42,44,-1,46,48,-1,-1,-1,-1,-1,-1,-1,-1,-1,-1,-1,-1,-1,-1,-1,-1],"split_conditions":[7.613319E4,4.417496E4,7.959491E4,7.622576E4,4.411687E4,8.039785E4,1.0023482E0,0E0,-6.9507025E-2,1.0023482E0,7.622576E4,1.2342963E5,-6.892576E-2,1E0,1.07903324E-1,4.517835E4,5.3E1,3.9804197E5,1.07492045E-1,5.645141E4,3.271378E6,1.1077422E-1,-4.308582E-2,2.810996E6,1.07895434E-1,5.3E1,-6.9837466E-2,2.39122E4,1.0023482E0,1E0,1.424163E-1,5.667893E4,6.242096E4,-6.946954E-2,1.00300305E-1,1.1834444E-1,1.08329356E-1,-6.077379E-2,1.05892316E-1,1.0752423E-1,-5.140456E-2,1.005735E-1,1.0789593E-1,-6.924337E-2,1.00916505E-1,9.6039325E-2,-7.754015E-2,1.1810712E-1,7.98489E-2],"split_indices":[1,8,1,0,1,8,7,8,0,7,0,0,0,6,0,0,1,8,0,1,3,0,0,3,0,1,0,0,7,6,0,0,8,0,0,0,0,0,0,0,0,0,0,0,0,0,0,0,0],"split_type":[0,0,0,0,0,0,0,0,0,0,0,0,0,0,0,0,0,0,0,0,0,0,0,0,0,0,0,0,0,0,0,0,0,0,0,0,0,0,0,0,0,0,0,0,0,0,0,0,0],"sum_hessian":[2.264896E5,1.5552169E5,7.09679E4,1.4511978E4,1.4100972E5,6.3018646E2,7.033771E4,1.2869158E4,1.6428195E3,1.2768241E5,1.33273125E4,5.076963E2,1.2249018E2,2.0227627E4,5.0110086E4,4.6215723E2,1.2407001E4,1.2743873E5,2.4367633E2,3.8640798E3,9.463232E3,5.0607544E2,1.6208557E0,1.0049561E4,1.0178066E4,2.0001663E2,2.621406E2,3.2771838E2,1.2079282E4,1.2742827E5,1.04521675E1,1.9862942E3,1.8777855E3,9.451059E3,1.217418E1,9.172717E3,8.7684436E2,6.8793902E0,1.9313724E2,2.05354E2,1.2236438E2,2.6765466E3,9.402735E3,1.2741385E5,1.4422018E1,1.2527145E3,7.335798E2,6.4045105E2,1.2373345E3],"tree_param":{"num_deleted":"0","num_feature":"9","num_nodes":"49","size_leaf_vector":"1"}},{"base_weights":[-2.6729416E-2,-1.0087727E0,2.0568182E0,1.551747E0,-1.2795175E0,1.4017262E0,2.0626845E0,1.9095033E0,-6.819413E-2,-1.3510855E0,-6.023373E-1,2.0745637E0,-6.764603E-2,2.1195529E0,1.01980545E-1,3.0829117E-2,1.9780023E0,-1.3578249E0,1.01615764E-1,1.1578622E0,-1.359518E0,1.0419821E-1,-4.0043276E-2,2.2000103E0,1.0197353E-1,1.8712636E0,-6.850966E-2,9.016582E-1,2.0066257E0,-1.3581812E0,1.2961572E-1,5.4351366E-1,1.706723E0,-6.816264E-2,9.3586124E-2,1.107163E-1,1.0234658E-1,-6.071073E-2,1.0030351E-1,1.0162737E-1,-4.938845E-2,9.458804E-2,1.01973854E-1,-6.792834E-2,9.552766E-2,9.516745E-2,-7.253186E-2,1.1178466E-1,7.278306E-2],"categories":[],"categories_nodes":[],"categories_segments":[],"categories_sizes":[],"default_left":[0,0,0,0,0,0,0,0,0,0,0,0,0,0,0,0,0,0,0,0,0,0,0,0,0,0,0,0,0,0,0,0,0,0,0,0,0,0,0,0,0,0,0,0,0,0,0,0,0],"id":5,"left_children":[1,3,5,7,9,11,13,15,-1,17,19,21,-1,23,-1,25,27,29,-1,31,33,-1,-1,35,-1,37,-1,39,41,43,-1,45,47,-1,-1,-1,-1,-1,-1,-1,-1,-1,-1,-1,-1,-1,-1,-1,-1],"loss_changes":[4.5594197E5,1.0499319E5,2.7140625E2,1.5109582E4,6.6371875E3,1.1828419E3,8.853125E1,1.6600703E3,0E0,2.8273281E3,1.7452504E4,1.5510986E1,0E0,1.26921875E2,0E0,1.1753622E3,3.8165625E2,1.7754688E2,0E0,1.3272144E3,1.1304297E2,0E0,0E0,1.7730469E1,0E0,8.438208E1,0E0,6.948184E2,4.188672E1,1.5834375E2,0E0,5.0465723E3,2.729546E2,0E0,0E0,0E0,0E0,0E0,0E0,0E0,0E0,0E0,0E0,0E0,0E0,0E0,0E0,0E0,0E0],"parents":[2147483647,0,0,1,1,2,2,3,3,4,4,5,5,6,6,7,7,9,9,10,10,11,11,13,13,15,15,16,16,17,17,19,19,20,20,23,23,25,25,27,27,28,28,29,29,31,31,32,32],"right_children":[2,4,6,8,10,12,14,16,-1,18,20,22,-1,24,-1,26,28,30,-1,32,34,-1,-1,36,-1,38,-1,40,42,44,-1,46,48,-1,-1,-1,-1,-1,-1,-1,-1,-1,-1,-1,-1,-1,-1,-1,-1],"split_conditions":[7.613319E4,4.417496E4,7.959491E4,7.622576E4,4.411687E4,8.039785E4,1.0023482E0,0E0,-6.819413E-2,1.0023482E0,7.622576E4,1.2342963E5,-6.764603E-2,1E0,1.01980545E-1,4.517835E4,5.3E1,3.9804197E5,1.01615764E-1,5.5177E4,3.271378E6,1.0419821E-1,-4.0043276E-2,2.810996E6,1.0197353E-1,5.3E1,-6.850966E-2,2.39122E4,1.0023482E0,1E0,1.2961572E-1,5.478207E4,6.122647E4,-6.816264E-2,9.3586124E-2,1.107163E-1,1.0234658E-1,-6.071073E-2,1.0030351E-1,1.0162737E-1,-4.938845E-2,9.458804E-2,1.01973854E-1,-6.792834E-2,9.552766E-2,9.516745E-2,-7.253186E-2,1.1178466E-1,7.278306E-2],"split_indices":[1,8,1,0,1,8,7,8,0,7,0,0,0,6,0,0,1,8,0,1,3,0,0,3,0,1,0,0,7,6,0,0,0,0,0,0,0,0,0,0,0,0,0,0,0,0,0,0,0],"split_type":[0,0,0,0,0,0,0,0,0,0,0,0,0,0,0,0,0,0,0,0,0,0,0,0,0,0,0,0,0,0,0,0,0,0,0,0,0,0,0,0,0,0,0,0,0,0,0,0,0],"sum_hessian":[2.2282892E5,1.5144739E5,7.138153E4,1.4481979E4,1.3696542E5,6.356766E2,7.074586E4,1.2899516E4,1.5824635E3,1.23872875E5,1.3092542E4,5.1108755E2,1.2458901E2,2.0393145E4,5.035271E4,4.5383917E2,1.2445676E4,1.2362722E5,2.4565268E2,3.9378318E3,9.154711E3,5.0969647E2,1.3910623E0,1.0159518E4,1.0233628E4,1.9601328E2,2.578259E2,3.2323828E2,1.21224375E4,1.2361673E5,1.0495102E1,1.8590067E3,2.078825E3,9.144719E3,9.991776E0,9.278366E3,8.8115186E2,7.8702574E0,1.8814302E2,2.0216162E2,1.2107667E2,2.7090042E3,9.413434E3,1.23602734E5,1.3992591E1,1.1053208E3,7.536859E2,6.6654816E2,1.4122769E3],"tree_param":{"num_deleted":"0","num_feature":"9","num_nodes":"49","size_leaf_vector":"1"}},{"base_weights":[-2.6495375E-2,-9.871862E-1,1.9534909E0,1.4826107E0,-1.2551628E0,1.37165E0,1.9586226E0,1.8178586E0,-6.699166E-2,-1.3271102E0,-5.8236426E-1,1.966903E0,-6.64135E-2,2.0071414E0,9.6940786E-2,5.4036338E-2,1.8803821E0,9.644882E-2,-1.3320532E0,1.0929159E0,-1.3351068E0,9.87874E-2,-3.9286725E-2,9.6934386E-2,2.0748734E0,1.7935767E0,-6.718426E-2,8.3920383E-1,1.9072543E0,-1.3342624E0,1.0126612E-1,5.5594486E-1,1.6424022E0,-6.6965096E-2,9.020114E-2,1.0435027E-1,9.677269E-2,-5.7614166E-2,9.453835E-2,9.6599884E-2,-4.9654525E-2,9.693375E-2,9.140896E-2,8.977362E-2,-6.672888E-2,8.344437E-2,-7.3980756E-2,6.866951E-2,1.00520685E-1],"categories":[],"categories_nodes":[],"categories_segments":[],"categories_sizes":[],"default_left":[0,0,0,0,0,0,0,0,0,0,0,0,0,0,0,0,0,0,0,0,0,0,0,0,0,0,0,0,0,0,0,0,0,0,0,0,0,0,0,0,0,0,0,0,0,0,0,0,0],"id":6,"left_children":[1,3,5,7,9,11,13,15,-1,17,19,21,-1,23,-1,25,27,-1,29,31,33,-1,-1,-1,35,37,-1,39,41,43,-1,45,47,-1,-1,-1,-1,-1,-1,-1,-1,-1,-1,-1,-1,-1,-1,-1,-1],"loss_changes":[4.160251E5,9.746639E4,2.1065625E2,1.3641766E4,6.4298594E3,1.0119147E3,6.41875E1,1.4208164E3,0E0,1.9341875E3,1.618803E4,1.4090576E1,0E0,9.103125E1,0E0,1.077388E3,3.465547E2,0E0,8.914531E2,1.173396E3,1.1905078E2,0E0,0E0,0E0,1.33671875E1,5.8697388E1,0E0,6.3237915E2,2.6589844E1,1.20625E2,0E0,4.566006E3,1.9192432E2,0E0,0E0,0E0,0E0,0E0,0E0,0E0,0E0,0E0,0E0,0E0,0E0,0E0,0E0,0E0,0E0],"parents":[2147483647,0,0,1,1,2,2,3,3,4,4,5,5,6,6,7,7,9,9,10,10,11,11,13,13,15,15,16,16,18,18,19,19,20,20,24,24,25,25,27,27,28,28,29,29,31,31,32,32],"right_children":[2,4,6,8,10,12,14,16,-1,18,20,22,-1,24,-1,26,28,-1,30,32,34,-1,-1,-1,36,38,-1,40,42,44,-1,46,48,-1,-1,-1,-1,-1,-1,-1,-1,-1,-1,-1,-1,-1,-1,-1,-1],"split_conditions":[7.613319E4,4.417496E4,7.959491E4,7.622576E4,4.411687E4,8.039785E4,2.9810803E5,0E0,-6.699166E-2,3.952563E4,7.622576E4,1.2342963E5,-6.64135E-2,1E0,9.6940786E-2,4.517835E4,5.3E1,9.644882E-2,3.9804197E5,5.645141E4,3.2489425E6,9.87874E-2,-3.9286725E-2,9.6934386E-2,3.2489425E6,5.3E1,-6.718426E-2,2.39122E4,3.952563E4,1E0,1.0126612E-1,5.667893E4,6.5693E4,-6.6965096E-2,9.020114E-2,1.0435027E-1,9.677269E-2,-5.7614166E-2,9.453835E-2,9.6599884E-2,-4.9654525E-2,9.693375E-2,9.140896E-2,8.977362E-2,-6.672888E-2,8.344437E-2,-7.3980756E-2,6.866951E-2,1.00520685E-1],"split_indices":[1,8,1,0,1,8,0,8,0,0,0,0,0,5,0,0,1,0,8,1,4,0,0,0,4,1,0,0,0,5,0,0,1,0,0,0,0,0,0,0,0,0,0,0,0,0,0,0,0],"split_type":[0,0,0,0,0,0,0,0,0,0,0,0,0,0,0,0,0,0,0,0,0,0,0,0,0,0,0,0,0,0,0,0,0,0,0,0,0,0,0,0,0,0,0,0,0,0,0,0,0],"sum_hessian":[2.1871055E5,1.4726025E5,7.145029E4,1.4413569E4,1.3284669E5,6.2701306E2,7.082327E4,1.2883618E4,1.5299513E3,1.20011945E5,1.2834741E4,5.139694E2,1.1304365E2,2.050187E4,5.0321402E4,4.4112427E2,1.2442494E4,1.8132408E2,1.1983062E5,3.9789233E3,8.855818E3,5.126045E2,1.3649044E0,1.0211342E4,1.0290528E4,1.9640472E2,2.4471956E2,3.13865E2,1.2128629E4,1.1975243E5,7.819186E1,2.0133965E3,1.9655267E3,8.844572E3,1.1246312E1,9.453892E3,8.366362E2,5.926138E0,1.9047859E2,1.9657298E2,1.1729199E2,8.662889E3,3.4657407E3,1.1492955E1,1.1974094E5,1.3018113E3,7.115852E2,1.1382278E3,8.2729895E2],"tree_param":{"num_deleted":"0","num_feature":"9","num_nodes":"49","size_leaf_vector":"1"}},{"base_weights":[-2.7386019E-2,-9.6759564E-1,1.8641555E0,1.4203601E0,-1.232875E0,1.3004208E0,1.8692008E0,1.7349216E0,-6.588741E-2,-1.3051585E0,-5.667113E-1,1.8698697E0,-6.5329865E-2,1.9110307E0,9.2603825E-2,7.6471694E-2,1.7945256E0,9.216716E-2,-1.3102446E0,1.0466204E0,-1.3131512E0,1.8817375E0,-4.4227686E-2,9.259785E-2,1.9689876E0,1.7142797E0,-6.6090986E-2,7.9813004E-1,1.8208218E0,-1.312337E0,9.5984325E-2,5.547175E-1,1.5412936E0,-6.586568E-2,8.6355634E-2,9.472425E-2,1.379155E0,9.896777E-2,9.245252E-2,-5.731028E-2,9.0533614E-2,9.229431E-2,-4.8528805E-2,9.259726E-2,8.7100856E-2,8.654208E-2,-6.5633945E-2,7.934628E-2,-7.225735E-2,9.881181E-2,6.5546624E-2,-4.961204E-2,8.70293E-2],"categories":[],"categories_nodes":[],"categories_segments":[],"categories_sizes":[],"default_left":[0,0,0,0,0,0,0,0,0,0,0,0,0,0,0,0,0,0,0,0,0,0,0,0,0,0,0,0,0,0,0,0,0,0,0,0,0,0,0,0,0,0,0,0,0,0,0,0,0,0,0,0,0],"id":7,"left_children":[1,3,5,7,9,11,13,15,-1,17,19,21,-1,23,-1,25,27,-1,29,31,33,35,-1,-1,37,39,-1,41,43,45,-1,47,49,-1,-1,-1,51,-1,-1,-1,-1,-1,-1,-1,-1,-1,-1,-1,-1,-1,-1,-1,-1],"loss_changes":[3.8054225E5,9.054433E4,1.9964062E2,1.2311236E4,6.1935938E3,9.429033E2,4.6890625E1,1.2670117E3,0E0,1.8607344E3,1.5167507E4,1.8673584E1,0E0,6.627344E1,0E0,1.02313293E3,3.2276562E2,0E0,7.855781E2,9.68626E2,1.1123926E2,7.0861816E-1,0E0,0E0,9.136719E0,5.8802856E1,0E0,5.947162E2,2.634375E1,1.2275E2,0E0,4.1293164E3,1.9638916E2,0E0,0E0,0E0,1.5869421E1,0E0,0E0,0E0,0E0,0E0,0E0,0E0,0E0,0E0,0E0,0E0,0E0,0E0,0E0,0E0,0E0],"parents":[2147483647,0,0,1,1,2,2,3,3,4,4,5,5,6,6,7,7,9,9,10,10,11,11,13,13,15,15,16,16,18,18,19,19,20,20,21,21,24,24,25,25,27,27,28,28,29,29,31,31,32,32,36,36],"right_children":[2,4,6,8,10,12,14,16,-1,18,20,22,-1,24,-1,26,28,-1,30,32,34,36,-1,-1,38,40,-1,42,44,46,-1,48,50,-1,-1,-1,52,-1,-1,-1,-1,-1,-1,-1,-1,-1,-1,-1,-1,-1,-1,-1,-1],"split_conditions":[7.613319E4,4.417496E4,7.959491E4,7.622576E4,4.411687E4,8.039785E4,2.9810803E5,0E0,-6.588741E-2,3.952563E4,7.622576E4,1.2342963E5,-6.5329865E-2,1E0,9.2603825E-2,4.517835E4,5.3E1,9.216716E-2,3.9804197E5,5.645141E4,3.2489425E6,7.993847E4,-4.4227686E-2,9.259785E-2,3.2489425E6,5.3E1,-6.6090986E-2,2.39122E4,3.952563E4,1E0,9.5984325E-2,5.667893E4,6.242096E4,-6.586568E-2,8.6355634E-2,9.472425E-2,1.1425358E5,9.896777E-2,9.245252E-2,-5.731028E-2,9.0533614E-2,9.229431E-2,-4.8528805E-2,9.259726E-2,8.7100856E-2,8.654208E-2,-6.5633945E-2,7.934628E-2,-7.225735E-2,9.881181E-2,6.5546624E-2,-4.961204E-2,8.70293E-2],"split_indices":[1,8,1,0,1,8,0,8,0,0,0,0,0,5,0,0,1,0,8,1,4,0,0,0,4,1,0,0,0,5,0,0,8,0,0,0,0,0,0,0,0,0,0,0,0,0,0,0,0,0,0,0,0],"split_type":[0,0,0,0,0,0,0,0,0,0,0,0,0,0,0,0,0,0,0,0,0,0,0,0,0,0,0,0,0,0,0,0,0,0,0,0,0,0,0,0,0,0,0,0,0,0,0,0,0,0,0,0,0],"sum_hessian":[2.1397262E5,1.4292889E5,7.104374E4,1.4290074E4,1.2863881E5,6.324925E2,7.041125E4,1.2817887E4,1.472188E3,1.1604603E5,1.2592785E4,5.1933685E2,1.1315561E2,2.0420271E4,4.999098E4,4.4476755E2,1.2373119E4,1.8657228E2,1.1585945E5,3.9832063E3,8.609578E3,5.174243E2,1.9125463E0,1.0129032E4,1.0291239E4,2.0473593E2,2.4003162E2,3.1895105E2,1.2054168E4,1.1578504E5,7.44182E1,1.9982593E3,1.984947E3,8.598373E3,1.1205173E1,5.0192404E2,1.5500302E1,9.458151E3,8.3308795E2,6.319243E0,1.984167E2,2.0027022E2,1.1868084E2,8.625193E3,3.4289739E3,1.2439571E1,1.157726E5,1.3181284E3,6.80131E2,6.8466284E2,1.3002842E3,1.819171E0,1.3681131E1],"tree_param":{"num_deleted":"0","num_feature":"9","num_nodes":"53","size_leaf_vector":"1"}},{"base_weights":[-2.6994107E-2,-9.4907844E-1,1.7868458E0,1.3607206E0,-1.2126013E0,1.2432512E0,1.7915927E0,1.6626128E0,-6.4871654E-2,-1.2850435E0,-5.512839E-1,1.7920625E0,-6.431152E-2,1.8279427E0,8.8835455E-2,5.6192465E-2,1.7196593E0,-1.2916907E0,8.847576E-2,9.9148494E-1,-1.292532E0,9.0126894E-2,-4.177628E-2,8.886867E-2,1.8781381E0,1.6370434E0,-6.505451E-2,7.677154E-1,1.7444305E0,-1.2920557E0,1.06846325E-1,4.147526E-1,1.380649E0,-6.485351E-2,8.3521485E-2,9.435525E-2,8.869649E-2,-5.6286287E-2,8.64509E-2,8.853861E-2,-4.8174158E-2,8.154416E-2,8.886489E-2,-6.412091E-2,-6.4704604E-2,8.70579E-2,-7.3129E-2,8.984406E-2,5.3893328E-2],"categories":[],"categories_nodes":[],"categories_segments":[],"categories_sizes":[],"default_left":[0,0,0,0,0,0,0,0,0,0,0,0,0,0,0,0,0,0,0,0,0,0,0,0,0,0,0,0,0,0,0,0,0,0,0,0,0,0,0,0,0,0,0,0,0,0,0,0,0],"id":8,"left_children":[1,3,5,7,9,11,13,15,-1,17,19,21,-1,23,-1,25,27,29,-1,31,33,-1,-1,-1,35,37,-1,39,41,43,-1,45,47,-1,-1,-1,-1,-1,-1,-1,-1,-1,-1,-1,-1,-1,-1,-1,-1],"loss_changes":[3.4925138E5,8.426833E4,1.7934375E2,1.1379318E4,5.9524375E3,8.5262024E2,3.4515625E1,1.1666758E3,0E0,2.2762344E3,1.4032963E4,1.5371582E1,0E0,4.8015625E1,0E0,9.4120764E2,2.8860156E2,1.42625E2,0E0,8.933047E2,1.13615234E2,0E0,0E0,0E0,6.1289062E0,5.34339E1,0E0,5.463009E2,4.1820312E1,5.3125E-1,0E0,4.0017866E3,2.9770605E2,0E0,0E0,0E0,0E0,0E0,0E0,0E0,0E0,0E0,0E0,0E0,0E0,0E0,0E0,0E0,0E0],"parents":[2147483647,0,0,1,1,2,2,3,3,4,4,5,5,6,6,7,7,9,9,10,10,11,11,13,13,15,15,16,16,17,17,19,19,20,20,24,24,25,25,27,27,28,28,29,29,31,31,32,32],"right_children":[2,4,6,8,10,12,14,16,-1,18,20,22,-1,24,-1,26,28,30,-1,32,34,-1,-1,-1,36,38,-1,40,42,44,-1,46,48,-1,-1,-1,-1,-1,-1,-1,-1,-1,-1,-1,-1,-1,-1,-1,-1],"split_conditions":[7.613319E4,4.417496E4,7.959491E4,7.622576E4,4.411687E4,8.039785E4,1.0023482E0,0E0,-6.4871654E-2,1.0023482E0,7.622576E4,1.2342963E5,-6.431152E-2,1.888722E4,8.8835455E-2,4.517835E4,5.3E1,3.9804197E5,8.847576E-2,5.2773E4,3.271378E6,9.0126894E-2,-4.177628E-2,8.886867E-2,3.2489425E6,5.3E1,-6.505451E-2,2.39122E4,1.0023482E0,3.803662E4,1.06846325E-1,5.284029E4,6.242096E4,-6.485351E-2,8.3521485E-2,9.435525E-2,8.869649E-2,-5.6286287E-2,8.64509E-2,8.853861E-2,-4.8174158E-2,8.154416E-2,8.886489E-2,-6.412091E-2,-6.4704604E-2,8.70579E-2,-7.3129E-2,8.984406E-2,5.3893328E-2],"split_indices":[1,8,1,0,1,8,7,8,0,7,0,0,0,4,0,0,1,8,0,1,3,0,0,0,4,1,0,0,7,3,0,0,8,0,0,0,0,0,0,0,0,0,0,0,0,0,0,0,0],"split_type":[0,0,0,0,0,0,0,0,0,0,0,0,0,0,0,0,0,0,0,0,0,0,0,0,0,0,0,0,0,0,0,0,0,0,0,0,0,0,0,0,0,0,0,0,0,0,0,0,0],"sum_hessian":[2.0881627E5,1.3843955E5,7.03767E4,1.4176574E4,1.2426298E5,6.115273E2,6.976518E4,1.2731056E4,1.4455186E3,1.1199396E5,1.2269019E4,5.0274112E2,1.08786156E2,2.0231807E4,4.953337E4,4.3666348E2,1.2294392E4,1.1175135E5,2.426098E2,3.981641E3,8.287377E3,5.0105756E2,1.6835667E0,1.0096493E4,1.0135313E4,2.0162325E2,2.3504022E2,3.126181E2,1.1981773E4,1.1174008E5,1.127353E1,1.6050535E3,2.376588E3,8.275265E3,1.2112394E1,9.316535E3,8.1877747E2,6.1338086E0,1.9548944E2,1.9792023E2,1.1469787E2,2.7010508E3,9.280723E3,1.9601486E4,9.213859E4,9.405748E2,6.644786E2,9.987207E2,1.3778671E3],"tree_param":{"num_deleted":"0","num_feature":"9","num_nodes":"49","size_leaf_vector":"1"}},{"base_weights":[-2.5910536E-2,-7.2721696E-1,8.554806E-2,-9.619152E-1,8.577222E-2,-9.857739E-1,1.7531085E0,-7.69507E-1,-1.072146E0,9.371122E-2,8.5398614E-2,8.494143E-2,-7.769815E-1,8.4280334E-2,-1.0738468E0,-2.770378E-2,-3.9964207E-2,-4.1234627E-2,-5.4068435E-2],"categories":[],"categories_nodes":[],"categories_segments":[],"categories_sizes":[],"default_left":[0,0,0,0,0,0,0,0,0,0,0,0,0,0,0,0,0,0,0],"id":9,"left_children":[1,3,-1,5,-1,7,9,11,13,-1,-1,-1,15,-1,17,-1,-1,-1,-1],"loss_changes":[2.478686E5,8.3105516E4,0E0,8.5686875E3,0E0,2.448086E3,3.098877E0,6.9168945E2,4.4120312E2,0E0,0E0,0E0,1.850293E2,0E0,1.7457812E2,0E0,0E0,0E0,0E0],"parents":[2147483647,0,0,1,1,3,3,5,5,6,6,7,7,8,8,12,12,14,14],"right_children":[2,4,-1,6,-1,8,10,12,14,-1,-1,-1,16,-1,18,-1,-1,-1,-1],"split_conditions":[1.0023482E0,1E0,8.554806E-2,3.2489425E6,8.577222E-2,1.2257362E5,7.622576E4,2.806E3,2.806E3,9.371122E-2,8.5398614E-2,8.494143E-2,6.588265E4,8.4280334E-2,4.99145E4,-2.770378E-2,-3.9964207E-2,-4.1234627E-2,-5.4068435E-2],"split_indices":[7,6,0,4,0,3,0,0,0,0,0,0,4,0,0,0,0,0,0],"split_type":[0,0,0,0,0,0,0,0,0,0,0,0,0,0,0,0,0,0,0],"sum_hessian":[2.0348933E5,1.44959E5,5.853033E4,1.3225239E5,1.27066E4,1.3110097E5,1.1514332E3,3.74186E4,9.368236E4,3.0160373E2,8.498295E2,1.1228309E2,3.730632E4,5.712901E1,9.3625234E4,3.3954985E3,3.391082E4,2.7469414E3,9.087829E4],"tree_param":{"num_deleted":"0","num_feature":"9","num_nodes":"19","size_leaf_vector":"1"}},{"base_weights":[-2.5085056E-2,-9.3599385E-1,1.6456225E0,1.6174651E0,-1.1451571E0,3.9702716E-1,1.6748183E0,5.8578265E-1,8.2695E-2,8.371873E-2,-1.1964291E0,1.8306351E0,-1.2197776E0,1.185554E0,1.6791046E0,8.231754E-2,-6.926102E-1,-1.2591349E0,-5.7328004E-1,8.350563E-2,1.9668535E0,-6.319582E-2,7.7308014E-2,1.7223421E0,-9.410422E-1,1.7434459E0,8.262059E-2,-6.859259E-2,9.200435E-2,-1.2598144E0,7.935147E-2,1.0628879E0,-1.2723441E0,1.01843774E-1,1.7511849E0,8.192365E-2,9.037077E-2,7.748904E-2,-6.293114E-2,8.260658E-2,1.8311187E0,-6.2810816E-2,-6.3371114E-2,8.937022E-2,3.957979E-2,-3.8742237E-2,-6.384596E-2,-8.256119E-2,9.970387E-2,9.231392E-2,8.250058E-2],"categories":[],"categories_nodes":[],"categories_segments":[],"categories_sizes":[],"default_left":[0,0,0,0,0,0,0,0,0,0,0,0,0,0,0,0,0,0,0,0,0,0,0,0,0,0,0,0,0,0,0,0,0,0,0,0,0,0,0,0,0,0,0,0,0,0,0,0,0,0,0],"id":10,"left_children":[1,3,5,7,9,11,13,15,-1,-1,17,19,21,23,25,-1,27,29,31,-1,33,-1,-1,35,37,39,-1,-1,-1,41,-1,43,45,-1,47,-1,-1,-1,-1,-1,49,-1,-1,-1,-1,-1,-1,-1,-1,-1,-1],"loss_changes":[3.033568E5,6.889905E4,2.56325E3,3.6617188E2,1.7238672E4,3.730129E3,1.4214062E2,4.549615E2,0E0,0E0,4.575125E3,1.536377E1,9.430798E1,6.868452E2,1.14140625E2,0E0,2.6483417E2,2.0778125E2,1.2249397E4,0E0,3.3151855E0,0E0,0E0,4.609375E-1,9.8161896E1,1.5675E2,0E0,0E0,0E0,1.3125E0,0E0,6.2877124E2,1.6089844E1,0E0,1.014939E2,0E0,0E0,0E0,0E0,0E0,2.4882812E1,0E0,0E0,0E0,0E0,0E0,0E0,0E0,0E0,0E0,0E0],"parents":[2147483647,0,0,1,1,2,2,3,3,4,4,5,5,6,6,7,7,10,10,11,11,12,12,13,13,14,14,16,16,17,17,18,18,20,20,23,23,24,24,25,25,29,29,31,31,32,32,34,34,40,40],"right_children":[2,4,6,8,10,12,14,16,-1,-1,18,20,22,24,26,-1,28,30,32,-1,34,-1,-1,36,38,40,-1,-1,-1,42,-1,44,46,-1,48,-1,-1,-1,-1,-1,50,-1,-1,-1,-1,-1,-1,-1,-1,-1,-1],"split_conditions":[7.1238E4,4.424445E4,7.613319E4,1.0023482E0,1E0,7.622576E4,7.959491E4,2.806E3,8.2695E-2,8.371873E-2,4.411687E4,1.888722E4,2.9810803E5,7.993847E4,1.0023482E0,8.231754E-2,4.411687E4,3.1571238E5,7.07539E4,8.350563E-2,7.438696E4,-6.319582E-2,7.7308014E-2,1.888722E4,1E0,1E0,8.262059E-2,-6.859259E-2,9.200435E-2,4.89E3,7.935147E-2,5.182414E4,7.160268E4,1.01843774E-1,7.403417E4,8.192365E-2,9.037077E-2,7.748904E-2,-6.293114E-2,8.260658E-2,3.2489425E6,-6.2810816E-2,-6.3371114E-2,8.937022E-2,3.957979E-2,-3.8742237E-2,-6.384596E-2,-8.256119E-2,9.970387E-2,9.231392E-2,8.250058E-2],"split_indices":[1,0,1,7,5,0,1,0,0,0,1,4,0,0,7,0,1,0,0,0,0,0,0,4,5,5,0,0,0,1,0,0,0,0,1,0,0,0,0,0,4,0,0,0,0,0,0,0,0,0,0],"split_type":[0,0,0,0,0,0,0,0,0,0,0,0,0,0,0,0,0,0,0,0,0,0,0,0,0,0,0,0,0,0,0,0,0,0,0,0,0,0,0,0,0,0,0,0,0,0,0,0,0,0,0],"sum_hessian":[1.9933064E5,1.28998234E5,7.0332414E4,9.7661875E3,1.1923205E5,1.6073324E3,6.872508E4,3.337202E2,9.432467E3,2.1288945E3,1.1710316E5,8.518614E2,7.55471E2,5.992676E2,6.812581E4,1.8224228E2,1.5147794E2,1.0639582E5,1.0707335E4,3.9713297E2,4.5472842E2,7.441391E2,1.1331901E1,4.7864078E2,1.20626785E2,1.995681E4,4.8169E4,1.198057E2,3.1672232E1,1.0637098E5,2.4837605E1,3.2051418E3,7.502194E3,3.3690106E2,1.1782738E2,2.5122783E2,2.2741293E2,1.3201994E1,1.0742479E2,9.785115E3,1.0171696E4,7.232949E4,3.404149E4,8.7166705E2,2.3334746E3,6.991688E1,7.432277E3,7.464688E0,1.1036269E2,9.377549E3,7.941473E2],"tree_param":{"num_deleted":"0","num_feature":"9","num_nodes":"51","size_leaf_vector":"1"}},{"base_weights":[-2.505335E-2,-9.224888E-1,1.5923585E0,-1.1253673E0,8.009694E-2,3.8720036E-1,1.6203336E0,8.102056E-2,-1.1750484E0,-6.2343758E-2,1.2535017E0,1.1617275E0,1.6244111E0,-1.2388581E0,-5.4967123E-1,1.6480389E0,8.8637686E-1,-8.6576706E-1,1.5149372E0,1.6815286E0,8.003368E-2,7.972001E-2,-1.24364E0,-6.2445264E-2,1.5912299E-1,1.6068362E0,9.01434E-2,-6.251031E-2,1.1046456E0,7.443481E-2,-6.1725438E-2,7.997968E-2,1.3864937E0,8.002072E-2,1.7584041E0,-6.2001295E-2,-6.256377E-2,5.6231167E-2,-2.0216724E-3,8.081096E-2,-3.555686E-2,5.1288188E-2,8.347364E-2,2.2897001E-2,7.4848555E-2,8.858298E-2,7.992001E-2],"categories":[],"categories_nodes":[],"categories_segments":[],"categories_sizes":[],"default_left":[0,0,0,0,0,0,0,0,0,0,0,0,0,0,0,0,0,0,0,0,0,0,0,0,0,0,0,0,0,0,0,0,0,0,0,0,0,0,0,0,0,0,0,0,0,0,0],"id":11,"left_children":[1,3,5,7,-1,9,11,-1,13,-1,15,17,19,21,23,25,27,29,31,33,-1,-1,35,-1,37,39,-1,-1,41,-1,-1,-1,43,-1,45,-1,-1,-1,-1,-1,-1,-1,-1,-1,-1,-1,-1],"loss_changes":[2.8103344E5,6.377554E4,2.3287344E3,1.572475E4,0E0,2.222274E3,1.24375E2,0E0,4.5170156E3,0E0,1.4710913E2,4.29972E2,8.8046875E1,1.3937344E3,5.196045E3,2.4951172E-1,2.5016989E2,7.94917E1,3.3291016E0,1.1958984E2,0E0,0E0,1.28125E0,0E0,1.00331305E3,9.822266E0,0E0,0E0,1.9877136E1,0E0,0E0,0E0,2.087387E1,0E0,1.8521484E1,0E0,0E0,0E0,0E0,0E0,0E0,0E0,0E0,0E0,0E0,0E0,0E0],"parents":[2147483647,0,0,1,1,2,2,3,3,5,5,6,6,8,8,10,10,11,11,12,12,13,13,14,14,15,15,16,16,17,17,18,18,19,19,22,22,24,24,25,25,28,28,32,32,34,34],"right_children":[2,4,6,8,-1,10,12,-1,14,-1,16,18,20,22,24,26,28,30,32,34,-1,-1,36,-1,38,40,-1,-1,42,-1,-1,-1,44,-1,46,-1,-1,-1,-1,-1,-1,-1,-1,-1,-1,-1,-1],"split_conditions":[7.1238E4,1.0023482E0,7.613319E4,1E0,8.009694E-2,1.0016339E0,7.959491E4,8.102056E-2,4.411687E4,-6.2343758E-2,7.504572E4,1.0016339E0,1.0023482E0,1.0013847E0,1.0016339E0,5.688823E4,3.9212E3,1E0,7.933096E4,1E0,8.003368E-2,7.972001E-2,4.89E3,-6.2445264E-2,6.588265E4,1E0,9.01434E-2,-6.251031E-2,2.6471942E6,7.443481E-2,-6.1725438E-2,7.997968E-2,3.803662E4,8.002072E-2,3.2489425E6,-6.2001295E-2,-6.256377E-2,5.6231167E-2,-2.0216724E-3,8.081096E-2,-3.555686E-2,5.1288188E-2,8.347364E-2,2.2897001E-2,7.4848555E-2,8.858298E-2,7.992001E-2],"split_indices":[1,7,1,5,0,7,1,0,1,0,4,7,7,7,7,4,3,5,4,5,0,0,1,0,4,5,0,0,3,0,0,0,3,0,4,0,0,0,0,0,0,0,0,0,0,0,0],"split_type":[0,0,0,0,0,0,0,0,0,0,0,0,0,0,0,0,0,0,0,0,0,0,0,0,0,0,0,0,0,0,0,0,0,0,0,0,0,0,0,0,0,0,0,0,0,0,0],"sum_hessian":[1.9361081E5,1.2452013E5,6.909068E4,1.1525786E5,9.262271E3,1.5677401E3,6.7522945E4,2.0478096E3,1.13210055E5,5.4302E2,1.0247201E3,5.975785E2,6.692537E4,1.0272738E5,1.0482672E4,4.9223825E2,5.324818E2,8.844355E1,5.0913492E2,1.9627463E4,4.7297902E4,1.7252321E2,1.0255486E5,5.2765396E3,5.2061323E3,3.9776465E2,9.447361E1,4.891695E1,4.8356485E2,1.1564635E1,7.6878914E1,2.9997174E2,2.091632E2,9.561063E3,1.0066398E4,6.971918E4,3.2835676E4,8.90937E2,4.3151953E3,3.9646255E2,1.3020883E0,4.2677847E2,5.6786366E1,2.278681E1,1.8637637E2,9.286955E3,7.794431E2],"tree_param":{"num_deleted":"0","num_feature":"9","num_nodes":"47","size_leaf_vector":"1"}},{"base_weights":[-2.401152E-2,-6.832642E-1,7.773509E-2,-9.074962E-1,7.789115E-2,-9.307821E-1,1.6069438E0,-7.165471E-1,-1.0179952E0,8.723509E-2,7.76074E-2,7.71683E-2,-7.2364724E-1,7.6567665E-2,-1.019679E0,-2.5176793E-2,-3.731079E-2,-3.8187284E-2,-5.1377308E-2],"categories":[],"categories_nodes":[],"categories_segments":[],"categories_sizes":[],"default_left":[0,0,0,0,0,0,0,0,0,0,0,0,0,0,0,0,0,0,0],"id":12,"left_children":[1,3,-1,5,-1,7,9,11,13,-1,-1,-1,15,-1,17,-1,-1,-1,-1],"loss_changes":[1.9566619E5,6.664627E4,0E0,7.060297E3,0E0,2.2311484E3,5.6452637E0,5.557031E2,3.659375E2,0E0,0E0,0E0,1.707832E2,0E0,1.7003906E2,0E0,0E0,0E0,0E0],"parents":[2147483647,0,0,1,1,3,3,5,5,6,6,7,7,8,8,12,12,14,14],"right_children":[2,4,-1,6,-1,8,10,12,14,-1,-1,-1,16,-1,18,-1,-1,-1,-1],"split_conditions":[1.0023482E0,1E0,7.773509E-2,3.2489425E6,7.789115E-2,1.2257362E5,7.622576E4,2.806E3,2.806E3,8.723509E-2,7.76074E-2,7.71683E-2,6.588265E4,7.6567665E-2,4.99145E4,-2.5176793E-2,-3.731079E-2,-3.8187284E-2,-5.1377308E-2],"split_indices":[7,6,0,4,0,3,0,0,0,0,0,0,4,0,0,0,0,0,0],"split_type":[0,0,0,0,0,0,0,0,0,0,0,0,0,0,0,0,0,0,0],"sum_hessian":[1.8799917E5,1.3261939E5,5.537978E4,1.2055759E5,1.2061795E4,1.19452E5,1.1055979E3,3.45618E4,8.4890195E4,3.058481E2,7.9974976E2,1.075677E2,3.445423E4,5.5428364E1,8.483477E4,3.206319E3,3.1247912E4,2.5329326E3,8.2301836E4],"tree_param":{"num_deleted":"0","num_feature":"9","num_nodes":"19","size_leaf_vector":"1"}},{"base_weights":[-2.5762374E-2,-8.990143E-1,1.5153229E0,1.1518903E0,-1.1435636E0,3.8966846E-1,1.5415486E0,-7.9837227E-1,1.3487052E0,-1.2099185E0,-5.082829E-1,1.6480705E0,-1.1868163E0,1.6069224E0,7.564994E-2,-1.1895217E0,7.546372E-2,-3.203459E-1,1.4281448E0,-1.2163414E0,7.532766E-2,1.0121083E0,-1.207673E0,-5.616349E-2,1.6844776E0,-6.135602E-2,6.975426E-2,7.562899E-2,1.6930374E0,-6.13234E-2,-8.380881E-1,7.5340025E-2,-6.1139323E-2,-7.684104E-1,1.4621135E0,-1.2168207E0,1.1371081E-1,5.226265E-1,1.4056802E0,7.4273735E-2,-1.2133901E0,1.4872938E0,1.8406016E0,8.0830276E-1,1.7211468E0,5.968755E-2,-6.2491607E-2,-6.1359216E-2,8.467945E-2,6.307411E-2,7.566335E-2,7.4868195E-2,-6.0860466E-2,7.927994E-2,-7.142282E-2,8.347196E-2,5.1942315E-2,-7.551788E-2,-6.0009517E-2,7.6254874E-2,-5.2047845E-2,9.667121E-2,8.032098E-2,8.248841E-2,-6.0948607E-2,8.691322E-2,7.554697E-2],"categories":[],"categories_nodes":[],"categories_segments":[],"categories_sizes":[],"default_left":[0,0,0,0,0,0,0,0,0,0,0,0,0,0,0,0,0,0,0,0,0,0,0,0,0,0,0,0,0,0,0,0,0,0,0,0,0,0,0,0,0,0,0,0,0,0,0,0,0,0,0,0,0,0,0,0,0,0,0,0,0,0,0,0,0,0,0],"id":13,"left_children":[1,3,5,7,9,11,13,15,17,19,21,23,25,27,-1,29,-1,31,33,35,-1,37,39,-1,41,-1,-1,-1,43,-1,45,-1,-1,47,49,51,-1,53,55,-1,57,59,61,63,65,-1,-1,-1,-1,-1,-1,-1,-1,-1,-1,-1,-1,-1,-1,-1,-1,-1,-1,-1,-1,-1,-1],"loss_changes":[2.4652636E5,5.864721E4,1.9554062E3,4.7828867E3,4.4033438E3,2.997343E3,1.184375E2,1.0331361E3,1.5008594E3,1.6522344E3,1.0509141E4,8.66521E1,7.151782E1,1.5720312E2,0E0,1.1664795E1,0E0,8.509369E2,8.0712305E2,1.6065625E2,0E0,5.9917773E2,1.0602344E2,0E0,2.2800781E1,0E0,0E0,0E0,2.5408984E2,0E0,8.19318E1,0E0,0E0,1.8862985E2,1.0726953E2,1.01359375E2,0E0,2.8840356E3,1.6522241E2,0E0,2.4666992E1,3.712256E1,6.8668213E0,5.4485065E2,3.3191406E1,0E0,0E0,0E0,0E0,0E0,0E0,0E0,0E0,0E0,0E0,0E0,0E0,0E0,0E0,0E0,0E0,0E0,0E0,0E0,0E0,0E0,0E0],"parents":[2147483647,0,0,1,1,2,2,3,3,4,4,5,5,6,6,7,7,8,8,9,9,10,10,11,11,12,12,13,13,15,15,17,17,18,18,19,19,21,21,22,22,24,24,28,28,30,30,33,33,34,34,35,35,37,37,38,38,40,40,41,41,42,42,43,43,44,44],"right_children":[2,4,6,8,10,12,14,16,18,20,22,24,26,28,-1,30,-1,32,34,36,-1,38,40,-1,42,-1,-1,-1,44,-1,46,-1,-1,48,50,52,-1,54,56,-1,58,60,62,64,66,-1,-1,-1,-1,-1,-1,-1,-1,-1,-1,-1,-1,-1,-1,-1,-1,-1,-1,-1,-1,-1,-1],"split_conditions":[7.1238E4,4.417496E4,7.613319E4,0E0,4.411687E4,7.617214E4,1.0023482E0,1.0023482E0,1.0016339E0,1.0023482E0,7.101467E4,1.0016339E0,3.271378E6,1E0,7.564994E-2,4.411687E4,7.546372E-2,1.0013847E0,5.3E1,3.9804197E5,7.532766E-2,5.2773E4,1E0,-5.616349E-2,6.780746E4,-6.135602E-2,6.975426E-2,7.562899E-2,7.959491E4,-6.13234E-2,4.5322E4,7.5340025E-2,-6.1139323E-2,1.0023482E0,1.0023482E0,1E0,1.1371081E-1,5.292896E4,6.242096E4,7.4273735E-2,7.617214E4,1E0,7.407647E4,8.039785E4,3.2489425E6,5.968755E-2,-6.2491607E-2,-6.1359216E-2,8.467945E-2,6.307411E-2,7.566335E-2,7.4868195E-2,-6.0860466E-2,7.927994E-2,-7.142282E-2,8.347196E-2,5.1942315E-2,-7.551788E-2,-6.0009517E-2,7.6254874E-2,-5.2047845E-2,9.667121E-2,8.032098E-2,8.248841E-2,-6.0948607E-2,8.691322E-2,7.554697E-2],"split_indices":[1,8,1,8,1,8,7,7,7,7,8,7,3,5,0,1,0,7,1,8,0,1,5,0,8,0,0,0,1,0,1,0,0,7,7,5,0,8,8,0,8,5,8,8,4,0,0,0,0,0,0,0,0,0,0,0,0,0,0,0,0,0,0,0,0,0,0],"split_type":[0,0,0,0,0,0,0,0,0,0,0,0,0,0,0,0,0,0,0,0,0,0,0,0,0,0,0,0,0,0,0,0,0,0,0,0,0,0,0,0,0,0,0,0,0,0,0,0,0,0,0,0,0,0,0,0,0,0,0,0,0,0,0,0,0,0,0],"sum_hessian":[1.8318603E5,1.1692896E5,6.625707E4,1.245679E4,1.0447217E5,1.5088846E3,6.4748188E4,1.1415895E3,1.1315201E4,9.4591234E4,9.880933E3,8.3906775E2,6.698169E2,1.9664646E4,4.508354E4,9.765477E2,1.6504172E2,5.1394885E2,1.0801252E4,9.4368664E4,2.2257405E2,3.1130605E3,6.767872E3,1.049283E1,8.2857495E2,6.6003827E2,9.778626E0,9.392899E3,1.0271748E4,8.813966E2,9.5151115E1,1.6969743E2,3.442514E2,1.6416277E2,1.0637089E4,9.435636E4,1.2305718E1,1.3885104E3,1.7245502E3,1.3788407E1,6.7540835E3,3.707925E2,4.5778244E2,3.172165E2,9.954531E3,1.5712952E1,7.943816E1,1.3880003E2,2.5362724E1,2.166287E3,8.470802E3,1.29580765E1,9.43434E4,8.989432E2,4.8956714E2,1.0011544E3,7.2339575E2,2.826063E2,6.4714775E3,3.6572083E2,5.071664E0,3.2264133E2,1.351411E2,2.2430144E2,9.291507E1,9.198229E3,7.563036E2],"tree_param":{"num_deleted":"0","num_feature":"9","num_nodes":"67","size_leaf_vector":"1"}},{"base_weights":[-2.4818935E-2,-8.8604975E-1,1.4753921E0,1.1251191E0,-1.1290703E0,3.663834E-1,1.5010401E0,1.3863013E0,-6.0926724E-2,-1.1968307E0,-4.9033207E-1,1.6320429E0,-1.1686786E0,1.5590745E0,7.378099E-2,1.3999085E-1,1.4268305E0,-1.2031184E0,7.3458225E-2,9.9515724E-1,-1.2186656E0,1.5164812E0,1.7756318E0,-6.066742E-2,6.876702E-2,7.381052E-2,1.6354623E0,1.363828E0,-6.0923677E-2,6.994679E-1,1.4453795E0,-1.2035551E0,1.0575303E-1,5.3866637E-1,1.3617325E0,-3.2799855E-1,-1.2256893E0,1.5332083E0,-6.402173E-2,9.3240105E-2,1.554744E0,8.3641666E-1,1.6617534E0,-5.046928E-2,7.158827E-2,7.347417E-2,-4.0413544E-2,6.603341E-2,7.379224E-2,-5.9980948E-2,-6.059425E-2,7.5872034E-2,-7.02486E-2,8.34945E-2,5.2783858E-2,-6.536894E-2,7.333135E-2,-7.3886745E-2,-6.069776E-2,7.430995E-2,8.447891E-2,-8.273311E-2,8.8858426E-2,8.071586E-2,-6.0216397E-2,8.3841264E-2,7.3679194E-2],"categories":[],"categories_nodes":[],"categories_segments":[],"categories_sizes":[],"default_left":[0,0,0,0,0,0,0,0,0,0,0,0,0,0,0,0,0,0,0,0,0,0,0,0,0,0,0,0,0,0,0,0,0,0,0,0,0,0,0,0,0,0,0,0,0,0,0,0,0,0,0,0,0,0,0,0,0,0,0,0,0,0,0,0,0,0,0],"id":14,"left_children":[1,3,5,7,9,11,13,15,-1,17,19,21,23,25,-1,27,29,31,-1,33,35,37,39,-1,-1,-1,41,43,-1,45,47,49,-1,51,53,55,57,59,-1,-1,61,63,65,-1,-1,-1,-1,-1,-1,-1,-1,-1,-1,-1,-1,-1,-1,-1,-1,-1,-1,-1,-1,-1,-1,-1,-1],"loss_changes":[2.2933869E5,5.5116547E4,1.8407969E3,7.443657E3,4.3539297E3,2.8474924E3,9.1046875E1,5.523574E2,0E0,1.5265234E3,1.0443166E4,1.0634766E1,7.6950745E1,1.1947266E2,0E0,5.763E2,1.4192773E2,1.3401562E2,0E0,5.3068896E2,4.011328E1,2.3103516E1,4.039917E0,0E0,0E0,0E0,2.0889844E2,3.0837585E1,0E0,3.093089E2,3.729883E1,1.515625E0,0E0,2.6960154E3,1.6429248E2,9.338079E1,1.720996E1,7.9418945E-1,0E0,0E0,7.956125E1,5.1133722E2,2.5007812E1,0E0,0E0,0E0,0E0,0E0,0E0,0E0,0E0,0E0,0E0,0E0,0E0,0E0,0E0,0E0,0E0,0E0,0E0,0E0,0E0,0E0,0E0,0E0,0E0],"parents":[2147483647,0,0,1,1,2,2,3,3,4,4,5,5,6,6,7,7,9,9,10,10,11,11,12,12,13,13,15,15,16,16,17,17,19,19,20,20,21,21,22,22,26,26,27,27,29,29,30,30,31,31,33,33,34,34,35,35,36,36,37,37,40,40,41,41,42,42],"right_children":[2,4,6,8,10,12,14,16,-1,18,20,22,24,26,-1,28,30,32,-1,34,36,38,40,-1,-1,-1,42,44,-1,46,48,50,-1,52,54,56,58,60,-1,-1,62,64,66,-1,-1,-1,-1,-1,-1,-1,-1,-1,-1,-1,-1,-1,-1,-1,-1,-1,-1,-1,-1,-1,-1,-1,-1],"split_conditions":[7.1238E4,4.417496E4,7.613319E4,7.160268E4,4.411687E4,7.622576E4,1.0023482E0,0E0,-6.0926724E-2,1.0023482E0,7.07539E4,1.42078E3,2.9810803E5,4.68009E4,7.378099E-2,4.517835E4,5.3E1,3.9804197E5,7.3458225E-2,5.2773E4,7.101467E4,7.504572E4,7.407647E4,-6.066742E-2,6.876702E-2,7.381052E-2,7.959491E4,5.3E1,-6.0923677E-2,2.39122E4,1.0023482E0,4.89E3,1.0575303E-1,5.284029E4,6.122647E4,6.991257E4,7.622576E4,1.888722E4,-6.402173E-2,9.3240105E-2,7.403417E4,8.039785E4,3.2489425E6,-5.046928E-2,7.158827E-2,7.347417E-2,-4.0413544E-2,6.603341E-2,7.379224E-2,-5.9980948E-2,-6.059425E-2,7.5872034E-2,-7.02486E-2,8.34945E-2,5.2783858E-2,-6.536894E-2,7.333135E-2,-7.3886745E-2,-6.069776E-2,7.430995E-2,8.447891E-2,-8.273311E-2,8.8858426E-2,8.071586E-2,-6.0216397E-2,8.3841264E-2,7.3679194E-2],"split_indices":[1,8,1,0,1,0,7,8,0,7,0,3,0,4,0,0,1,8,0,1,8,4,8,0,0,0,1,1,0,0,7,1,0,0,0,1,0,4,0,0,1,8,4,0,0,0,0,0,0,0,0,0,0,0,0,0,0,0,0,0,0,0,0,0,0,0,0],"split_type":[0,0,0,0,0,0,0,0,0,0,0,0,0,0,0,0,0,0,0,0,0,0,0,0,0,0,0,0,0,0,0,0,0,0,0,0,0,0,0,0,0,0,0,0,0,0,0,0,0,0,0,0,0,0,0,0,0,0,0,0,0,0,0,0,0,0,0],"sum_hessian":[1.7750088E5,1.12765586E5,6.473528E4,1.2156687E4,1.006089E5,1.4636328E3,6.327165E4,1.0938125E4,1.2185613E3,9.095869E4,9.650213E3,8.021755E2,6.614573E2,1.9254195E4,4.4017453E4,3.4463892E2,1.0593486E4,9.074522E4,2.1347243E2,3.1747378E3,6.4754756E3,4.508711E2,3.5130438E2,6.505574E2,1.0899886E1,9.245329E3,1.0008865E4,1.8130118E2,1.6333772E2,2.6439694E2,1.032909E4,9.0733914E4,1.1301843E1,1.4150571E3,1.7596808E3,5.103816E1,6.4244375E3,4.4863983E2,2.2312837E0,2.449701E2,1.0633428E2,3.1987833E2,9.688986E3,4.6599593E0,1.7664122E2,1.7503197E2,8.9365E1,2.0365808E3,8.292509E3,6.1716438E4,2.9017477E4,9.4127203E2,4.7378503E2,8.746088E2,8.8507196E2,3.3194458E1,1.7843699E1,2.8022922E2,6.144208E3,3.5301727E2,9.562256E1,6.4744186E0,9.985986E1,2.3174838E2,8.812996E1,8.963149E3,7.258375E2],"tree_param":{"num_deleted":"0","num_feature":"9","num_nodes":"67","size_leaf_vector":"1"}},{"base_weights":[-2.3186838E-2,-8.7487555E-1,1.4400398E0,1.099525E0,-1.1159067E0,3.7015274E-1,1.4647714E0,1.35296E0,-6.029473E-2,-1.1841599E0,-4.8122576E-1,1.5842671E0,-1.1531527E0,1.0760225E0,1.4682647E0,9.93047E-2,1.3927283E0,7.170126E-2,-1.1889894E0,9.558161E-1,-1.2062339E0,7.255745E-2,1.6859949E0,-6.0034793E-2,6.743854E-2,1.4861966E0,-5.9562135E-2,1.5298891E0,7.208952E-2,1.3136383E0,-6.0237046E-2,6.981579E-1,1.4107661E0,-1.1911225E0,7.818395E-2,5.736838E-1,1.366414E0,-3.9577988E-1,-1.2129354E0,8.643636E-2,1.3229156E0,1.4947388E0,-3.840806E-2,1.6090083E0,7.207459E-2,-5.1016893E-2,6.969536E-2,7.1787246E-2,-3.8805306E-2,7.207857E-2,6.623929E-2,-5.9575718E-2,7.412103E-2,6.770532E-2,-6.388605E-2,5.8625456E-2,8.924789E-2,-6.47889E-2,7.014374E-2,-7.253532E-2,-6.0065992E-2,-7.122596E-2,7.914404E-2,7.527398E-2,5.2315857E-2,8.1112735E-2,7.199028E-2],"categories":[],"categories_nodes":[],"categories_segments":[],"categories_sizes":[],"default_left":[0,0,0,0,0,0,0,0,0,0,0,0,0,0,0,0,0,0,0,0,0,0,0,0,0,0,0,0,0,0,0,0,0,0,0,0,0,0,0,0,0,0,0,0,0,0,0,0,0,0,0,0,0,0,0,0,0,0,0,0,0,0,0,0,0,0,0],"id":15,"left_children":[1,3,5,7,9,11,13,15,-1,17,19,21,23,25,27,29,31,-1,33,35,37,-1,39,-1,-1,41,-1,43,-1,45,-1,47,49,51,-1,53,55,57,59,-1,61,63,-1,65,-1,-1,-1,-1,-1,-1,-1,-1,-1,-1,-1,-1,-1,-1,-1,-1,-1,-1,-1,-1,-1,-1,-1],"loss_changes":[2.13913E5,5.1634516E4,1.6704844E3,6.8988086E3,4.188117E3,2.6432324E3,8.2234375E1,5.3012695E2,0E0,1.1056328E3,9.784749E3,8.321533E0,7.703589E1,5.1648193E2,9.759375E1,5.2113873E2,1.2816992E2,0E0,5.135469E2,4.9337988E2,3.34209E1,0E0,4.6103516E0,0E0,0E0,1.0182251E1,0E0,1.26140625E2,0E0,3.3340424E1,0E0,2.870163E2,2.4703125E1,9.299219E1,0E0,2.3612383E3,1.2106201E2,8.7087364E1,1.5354492E1,0E0,3.8732254E1,6.7736816E-1,0E0,1.9363281E1,0E0,0E0,0E0,0E0,0E0,0E0,0E0,0E0,0E0,0E0,0E0,0E0,0E0,0E0,0E0,0E0,0E0,0E0,0E0,0E0,0E0,0E0,0E0],"parents":[2147483647,0,0,1,1,2,2,3,3,4,4,5,5,6,6,7,7,9,9,10,10,11,11,12,12,13,13,14,14,15,15,16,16,18,18,19,19,20,20,22,22,25,25,27,27,29,29,31,31,32,32,33,33,35,35,36,36,37,37,38,38,40,40,41,41,43,43],"right_children":[2,4,6,8,10,12,14,16,-1,18,20,22,24,26,28,30,32,-1,34,36,38,-1,40,-1,-1,42,-1,44,-1,46,-1,48,50,52,-1,54,56,58,60,-1,62,64,-1,66,-1,-1,-1,-1,-1,-1,-1,-1,-1,-1,-1,-1,-1,-1,-1,-1,-1,-1,-1,-1,-1,-1,-1],"split_conditions":[7.1238E4,4.417496E4,7.613319E4,7.160268E4,4.411687E4,7.622576E4,7.959491E4,0E0,-6.029473E-2,3.952563E4,7.07539E4,1.888722E4,2.9810803E5,8.039785E4,2.9810803E5,4.517835E4,5.3E1,7.170126E-2,3.9804197E5,5.5177E4,7.101467E4,7.255745E-2,7.511361E4,-6.0034793E-2,6.743854E-2,1.2342963E5,-5.9562135E-2,1E0,7.208952E-2,5.3E1,-6.0237046E-2,2.39122E4,3.952563E4,1E0,7.818395E-2,5.478207E4,6.3858E4,6.991257E4,7.622576E4,8.643636E-2,7.403417E4,7.993847E4,-3.840806E-2,3.2489425E6,7.207459E-2,-5.1016893E-2,6.969536E-2,7.1787246E-2,-3.8805306E-2,7.207857E-2,6.623929E-2,-5.9575718E-2,7.412103E-2,6.770532E-2,-6.388605E-2,5.8625456E-2,8.924789E-2,-6.47889E-2,7.014374E-2,-7.253532E-2,-6.0065992E-2,-7.122596E-2,7.914404E-2,7.527398E-2,5.2315857E-2,8.1112735E-2,7.199028E-2],"split_indices":[1,8,1,0,1,0,1,8,0,0,0,4,0,8,0,0,1,0,8,1,8,0,8,0,0,0,0,6,0,1,0,0,0,6,0,0,1,1,0,0,1,0,0,4,0,0,0,0,0,0,0,0,0,0,0,0,0,0,0,0,0,0,0,0,0,0,0],"split_type":[0,0,0,0,0,0,0,0,0,0,0,0,0,0,0,0,0,0,0,0,0,0,0,0,0,0,0,0,0,0,0,0,0,0,0,0,0,0,0,0,0,0,0,0,0,0,0,0,0,0,0,0,0,0,0,0,0,0,0,0,0,0,0,0,0,0,0],"sum_hessian":[1.7164834E5,1.0849685E5,6.31515E4,1.180369E4,9.669316E4,1.427198E3,6.17243E4,1.0634997E4,1.1686937E3,8.730371E4,9.389447E3,7.9417755E2,6.330204E2,5.5246906E2,6.1171832E4,3.2709656E2,1.03079E4,1.6019804E2,8.7143516E4,3.148491E3,6.240956E3,3.5062442E2,4.4355316E2,6.21726E2,1.129435E1,4.6812448E2,8.434457E1,1.8365496E4,4.2806336E4,1.6937053E2,1.5772603E2,2.619231E2,1.0045978E4,8.70766E4,6.6909676E1,1.6320155E3,1.5164753E3,5.1675014E1,6.1892812E3,3.9348132E2,5.0071835E1,4.6669305E2,1.431414E0,9.68227E3,8.683227E3,5.24185E0,1.6412868E2,1.745969E2,8.73262E1,7.384486E3,2.6614915E3,8.70644E4,1.22069435E1,1.1482587E3,4.8375684E2,1.0389482E3,4.7752707E2,3.4627792E1,1.7047222E1,2.8250513E2,5.906776E3,3.941071E0,4.6130764E1,4.5347385E2,1.3219211E1,8.971346E3,7.1092456E2],"tree_param":{"num_deleted":"0","num_feature":"9","num_nodes":"67","size_leaf_vector":"1"}},{"base_weights":[-2.4228217E-2,-8.6491185E-1,1.407214E0,1.3770933E0,-1.0621835E0,3.5385492E-1,1.4315112E0,3.937142E-1,7.062724E-2,7.1765296E-2,-1.1111168E0,1.5292147E0,-1.1485989E0,1.0375861E0,1.4350525E0,7.021364E-2,-6.679739E-1,-1.1790795E0,-4.827119E-1,7.180443E-2,1.6411239E0,-5.9441067E-2,6.491547E-2,7.3394984E-2,-8.8975513E-1,1.4907868E0,7.055289E-2,-1.3390492E0,8.104213E-2,-1.1797135E0,6.723044E-2,9.03145E-1,-1.192409E0,8.437869E-2,1.4802527E0,6.5730095E-2,-5.95542E-2,7.05389E-2,1.5619103E0,-5.912223E-2,-7.3225886E-2,-5.8766335E-2,-5.944794E-2,7.894241E-2,3.4389198E-2,-2.9812282E-2,-5.993702E-2,-7.170881E-2,8.191744E-2,7.869022E-2,7.095035E-2],"categories":[],"categories_nodes":[],"categories_segments":[],"categories_sizes":[],"default_left":[0,0,0,0,0,0,0,0,0,0,0,0,0,0,0,0,0,0,0,0,0,0,0,0,0,0,0,0,0,0,0,0,0,0,0,0,0,0,0,0,0,0,0,0,0,0,0,0,0,0,0],"id":16,"left_children":[1,3,5,7,9,11,13,15,-1,-1,17,19,21,23,25,-1,27,29,31,-1,33,-1,-1,-1,35,37,-1,39,-1,41,-1,43,45,-1,47,-1,-1,-1,49,-1,-1,-1,-1,-1,-1,-1,-1,-1,-1,-1,-1],"loss_changes":[1.9957119E5,4.6211266E4,1.5699453E3,2.9403223E2,1.1737539E4,2.447189E3,8.2171875E1,3.1789005E2,0E0,0E0,4.0219531E3,5.744995E0,6.142163E1,4.474922E2,7.738281E1,0E0,2.2448888E2,1.375625E2,9.043617E3,0E0,8.807373E-2,0E0,0E0,0E0,6.7202225E1,9.948828E1,0E0,4.7827148E-1,0E0,2.046875E0,0E0,4.5209912E2,2.2236328E1,0E0,4.182759E1,0E0,0E0,0E0,1.3832031E1,0E0,0E0,0E0,0E0,0E0,0E0,0E0,0E0,0E0,0E0,0E0,0E0],"parents":[2147483647,0,0,1,1,2,2,3,3,4,4,5,5,6,6,7,7,10,10,11,11,12,12,13,13,14,14,16,16,17,17,18,18,20,20,24,24,25,25,27,27,29,29,31,31,32,32,34,34,38,38],"right_children":[2,4,6,8,10,12,14,16,-1,-1,18,20,22,24,26,-1,28,30,32,-1,34,-1,-1,-1,36,38,-1,40,-1,42,-1,44,46,-1,48,-1,-1,-1,50,-1,-1,-1,-1,-1,-1,-1,-1,-1,-1,-1,-1],"split_conditions":[7.1238E4,4.424445E4,7.613319E4,1.0023482E0,1E0,7.622576E4,7.959491E4,2.806E3,7.062724E-2,7.1765296E-2,4.411687E4,1.42078E3,2.9810803E5,7.993847E4,1.0023482E0,7.021364E-2,4.411687E4,3.1571238E5,7.07539E4,7.180443E-2,7.438696E4,-5.9441067E-2,6.491547E-2,7.3394984E-2,1E0,1E0,7.055289E-2,5.3E1,8.104213E-2,4.89E3,6.723044E-2,5.084513E4,7.160268E4,8.437869E-2,7.403417E4,6.5730095E-2,-5.95542E-2,7.05389E-2,2.810996E6,-5.912223E-2,-7.3225886E-2,-5.8766335E-2,-5.944794E-2,7.894241E-2,3.4389198E-2,-2.9812282E-2,-5.993702E-2,-7.170881E-2,8.191744E-2,7.869022E-2,7.095035E-2],"split_indices":[1,0,1,7,5,0,1,0,0,0,1,3,0,0,7,0,1,0,0,0,0,0,0,0,5,5,0,1,0,1,0,0,0,0,1,0,0,0,3,0,0,0,0,0,0,0,0,0,0,0,0],"split_type":[0,0,0,0,0,0,0,0,0,0,0,0,0,0,0,0,0,0,0,0,0,0,0,0,0,0,0,0,0,0,0,0,0,0,0,0,0,0,0,0,0,0,0,0,0,0,0,0,0,0,0],"sum_hessian":[1.658388E5,1.0447891E5,6.135989E4,8.449042E3,9.602987E4,1.3837894E3,5.99761E4,2.9441678E2,8.154625E3,1.8448086E3,9.4185055E4,7.763994E2,6.0739E2,5.369877E2,5.9439113E4,1.5067522E2,1.4374158E2,8.499217E4,9.192884E3,4.3131186E2,3.4508755E2,5.98073E2,9.317005E0,4.391728E2,9.781484E1,1.7869957E4,4.1569156E4,1.1147294E2,3.226863E1,8.497136E4,2.081223E1,3.1132432E3,6.0796406E3,2.6040753E2,8.4680016E1,1.1358631E1,8.645621E1,8.419484E3,9.450473E3,5.4220875E1,5.7252064E1,5.771465E4,2.725671E4,7.5090875E2,2.3623345E3,6.488869E1,6.014752E3,3.941871E0,8.0738144E1,8.71508E3,7.353929E2],"tree_param":{"num_deleted":"0","num_feature":"9","num_nodes":"51","size_leaf_vector":"1"}},{"base_weights":[-2.2005294E-2,-6.2969065E-1,6.916503E-2,6.9350176E-2,-8.3931243E-1,-8.6116374E-1,1.42311E0,-6.513616E-1,-9.486161E-1,7.6579876E-2,6.915002E-2,6.853062E-2,-6.575248E-1,6.798069E-2,-9.5025E-1,-2.2589182E-2,-3.397077E-2,-3.4674663E-2,-4.7919024E-2],"categories":[],"categories_nodes":[],"categories_segments":[],"categories_sizes":[],"default_left":[0,0,0,0,0,0,0,0,0,0,0,0,0,0,0,0,0,0,0],"id":17,"left_children":[1,3,-1,-1,5,7,9,11,13,-1,-1,-1,15,-1,17,-1,-1,-1,-1],"loss_changes":[1.3676877E5,4.7266484E4,0E0,0E0,5.0081562E3,1.839875E3,2.0993652E0,3.6871484E2,2.683047E2,0E0,0E0,0E0,1.3221973E2,0E0,1.4701953E2,0E0,0E0,0E0,0E0],"parents":[2147483647,0,0,1,1,4,4,5,5,6,6,7,7,8,8,12,12,14,14],"right_children":[2,4,-1,-1,6,8,10,12,14,-1,-1,-1,16,-1,18,-1,-1,-1,-1],"split_conditions":[1.0023482E0,1E0,6.916503E-2,6.9350176E-2,3.2489425E6,1.2257362E5,7.07539E4,2.806E3,2.806E3,7.6579876E-2,6.915002E-2,6.853062E-2,6.588265E4,6.798069E-2,4.99145E4,-2.2589182E-2,-3.397077E-2,-3.4674663E-2,-4.7919024E-2],"split_indices":[7,5,0,0,4,3,0,0,0,0,0,0,4,0,0,0,0,0,0],"split_type":[0,0,0,0,0,0,0,0,0,0,0,0,0,0,0,0,0,0,0],"sum_hessian":[1.601518E5,1.1180527E5,4.8346527E4,1.0526648E4,1.01278625E5,1.00310414E5,9.682132E2,2.9513838E4,7.079657E4,2.5130522E2,7.1690796E2,8.9016266E1,2.942482E4,4.9491993E1,7.074708E4,2.8317651E3,2.6593055E4,2.174153E3,6.857293E4],"tree_param":{"num_deleted":"0","num_feature":"9","num_nodes":"19","size_leaf_vector":"1"}},{"base_weights":[-2.433087E-2,-8.4848166E-1,1.3608872E0,1.031863E0,-1.0818216E0,3.661139E-1,1.3842834E0,1.2692326E0,-5.8786865E-2,-1.1538574E0,-4.3608087E-1,1.4878913E0,-1.1276549E0,1.4431788E0,6.787271E-2,7.6134145E-2,1.3076934E0,6.746428E-2,-1.158558E0,8.98228E-1,-1.1726966E0,6.8172984E-2,1.5760428E0,-5.8521587E-2,6.262001E-2,6.785039E-2,1.5162737E0,1.2392745E0,-5.8926582E-2,6.6385007E-1,1.3242286E0,-1.160668E0,1.4989753E0,5.585221E-1,1.3304309E0,-2.4137524E-1,-1.18115E0,8.283357E-2,1.3717041E0,7.815924E-1,1.5391046E0,-4.8293423E-2,6.540058E-2,6.755149E-2,-3.516532E-2,6.78609E-2,6.1654877E-2,6.867648E-2,-5.805399E-2,8.754195E-2,6.607986E-2,5.8981497E-2,-6.710336E-2,8.286249E-2,5.5229403E-2,-6.271254E-2,7.314101E-2,-6.893371E-2,-5.856849E-2,-8.454716E-2,8.103869E-2,7.5689256E-2,-5.850202E-2,7.763285E-2,6.7764685E-2],"categories":[],"categories_nodes":[],"categories_segments":[],"categories_sizes":[],"default_left":[0,0,0,0,0,0,0,0,0,0,0,0,0,0,0,0,0,0,0,0,0,0,0,0,0,0,0,0,0,0,0,0,0,0,0,0,0,0,0,0,0,0,0,0,0,0,0,0,0,0,0,0,0,0,0,0,0,0,0,0,0,0,0,0,0],"id":18,"left_children":[1,3,5,7,9,11,13,15,-1,17,19,21,23,25,-1,27,29,-1,31,33,35,-1,37,-1,-1,-1,39,41,-1,43,45,47,49,51,53,55,57,-1,59,61,63,-1,-1,-1,-1,-1,-1,-1,-1,-1,-1,-1,-1,-1,-1,-1,-1,-1,-1,-1,-1,-1,-1,-1,-1],"loss_changes":[1.7773695E5,4.2829266E4,1.3511406E3,5.648495E3,4.0388203E3,2.240144E3,8.769531E1,4.4641602E2,0E0,9.2078125E2,8.568254E3,6.224121E0,5.985486E1,1.0969531E2,0E0,4.4648004E2,9.947656E1,0E0,4.3898438E2,4.5454688E2,4.3933594E1,0E0,4.9833984E0,0E0,0E0,0E0,1.5966797E2,2.5322968E1,0E0,2.245852E2,2.5954102E1,8.2875E1,4.6928406E-1,2.0532434E3,9.884375E1,9.121175E1,9.137207E0,0E0,1.0222742E2,4.1773657E2,2.1064453E1,0E0,0E0,0E0,0E0,0E0,0E0,0E0,0E0,0E0,0E0,0E0,0E0,0E0,0E0,0E0,0E0,0E0,0E0,0E0,0E0,0E0,0E0,0E0,0E0],"parents":[2147483647,0,0,1,1,2,2,3,3,4,4,5,5,6,6,7,7,9,9,10,10,11,11,12,12,13,13,15,15,16,16,18,18,19,19,20,20,22,22,26,26,27,27,29,29,30,30,31,31,32,32,33,33,34,34,35,35,36,36,38,38,39,39,40,40],"right_children":[2,4,6,8,10,12,14,16,-1,18,20,22,24,26,-1,28,30,-1,32,34,36,-1,38,-1,-1,-1,40,42,-1,44,46,48,50,52,54,56,58,-1,60,62,64,-1,-1,-1,-1,-1,-1,-1,-1,-1,-1,-1,-1,-1,-1,-1,-1,-1,-1,-1,-1,-1,-1,-1,-1],"split_conditions":[7.1238E4,4.417496E4,7.613319E4,7.160268E4,4.411687E4,7.622576E4,2.9810803E5,0E0,-5.8786865E-2,3.952563E4,7.07539E4,1.888722E4,2.9810803E5,1E0,6.787271E-2,4.517835E4,5.3E1,6.746428E-2,3.9804197E5,5.645141E4,7.101467E4,6.8172984E-2,7.407647E4,-5.8521587E-2,6.262001E-2,6.785039E-2,7.959491E4,5.3E1,-5.8926582E-2,2.39122E4,3.952563E4,1E0,1.2235519E5,5.667893E4,6.122647E4,6.991257E4,7.622576E4,8.283357E-2,7.403417E4,7.993847E4,3.2489425E6,-4.8293423E-2,6.540058E-2,6.755149E-2,-3.516532E-2,6.78609E-2,6.1654877E-2,6.867648E-2,-5.805399E-2,8.754195E-2,6.607986E-2,5.8981497E-2,-6.710336E-2,8.286249E-2,5.5229403E-2,-6.271254E-2,7.314101E-2,-6.893371E-2,-5.856849E-2,-8.454716E-2,8.103869E-2,7.5689256E-2,-5.850202E-2,7.763285E-2,6.7764685E-2],"split_indices":[1,8,1,0,1,0,0,8,0,0,0,4,0,5,0,0,1,0,8,1,8,0,8,0,0,0,1,1,0,0,0,5,0,0,0,1,0,0,1,0,4,0,0,0,0,0,0,0,0,0,0,0,0,0,0,0,0,0,0,0,0,0,0,0,0],"split_type":[0,0,0,0,0,0,0,0,0,0,0,0,0,0,0,0,0,0,0,0,0,0,0,0,0,0,0,0,0,0,0,0,0,0,0,0,0,0,0,0,0,0,0,0,0,0,0,0,0,0,0,0,0,0,0,0,0,0,0,0,0,0,0,0,0],"sum_hessian":[1.556852E5,9.761091E4,5.8074297E4,1.0775365E4,8.683554E4,1.3348585E3,5.6739438E4,9.729624E3,1.0457415E3,7.8120055E4,8.715489E3,7.623554E2,5.7250305E2,1.7741252E4,3.8998188E4,3.0394315E2,9.425681E3,1.4589128E2,7.797416E4,3.09997E3,5.615519E3,3.229531E2,4.3940234E2,5.6289435E2,9.60869E0,8.1513154E3,9.589936E3,1.5773077E2,1.4621236E2,2.370407E2,9.188641E3,7.791286E4,6.1298267E1,1.7370016E3,1.3629685E3,5.07786E1,5.56474E3,3.099814E2,1.2942093E2,2.9009433E2,9.299842E3,4.373499E0,1.5335728E2,1.5775793E2,7.928277E1,6.736238E3,2.4524026E3,1.211285E1,7.790075E4,2.1664965E1,3.9633305E1,1.3094545E3,4.275471E2,5.543812E2,8.085873E2,3.2014843E1,1.8763756E1,2.559317E2,5.3088086E3,9.298188E0,1.2012274E2,2.1111488E2,7.897946E1,8.654309E3,6.4553265E2],"tree_param":{"num_deleted":"0","num_feature":"9","num_nodes":"65","size_leaf_vector":"1"}},{"base_weights":[-2.2939323E-2,-8.385447E-1,1.3353695E0,1.300105E0,-1.0297298E0,3.493256E-1,1.35824E0,3.5127446E-1,6.677224E-2,6.776758E-2,-1.0780292E0,1.4452989E0,-1.1192524E0,1.4113655E0,6.669963E-2,6.635042E-2,-6.622156E-1,-1.1509804E0,-4.3214428E-1,1.3595178E0,1.5453085E0,-5.8023985E-2,6.114201E-2,6.667889E-2,1.4771464E0,-1.325078E0,7.689155E-2,-1.1515895E0,6.3304566E-2,8.460603E-1,-1.1626035E0,6.884354E-2,-6.2309306E-2,8.0023155E-2,1.3614575E0,7.6098776E-1,1.4992187E0,-5.7748552E-2,-7.2649114E-2,-5.733967E-2,-5.8082968E-2,7.4244134E-2,3.2158487E-2,-2.4314662E-2,-5.8499485E-2,-6.7046806E-2,7.628804E-2,7.392248E-2,-5.8030285E-2,7.557676E-2,6.6592775E-2],"categories":[],"categories_nodes":[],"categories_segments":[],"categories_sizes":[],"default_left":[0,0,0,0,0,0,0,0,0,0,0,0,0,0,0,0,0,0,0,0,0,0,0,0,0,0,0,0,0,0,0,0,0,0,0,0,0,0,0,0,0,0,0,0,0,0,0,0,0,0,0],"id":19,"left_children":[1,3,5,7,9,11,13,15,-1,-1,17,19,21,23,-1,-1,25,27,29,31,33,-1,-1,-1,35,37,-1,39,-1,41,43,-1,-1,-1,45,47,49,-1,-1,-1,-1,-1,-1,-1,-1,-1,-1,-1,-1,-1,-1],"loss_changes":[1.6635786E5,3.8364492E4,1.2700312E3,2.5771484E2,9.923078E3,2.0593E3,6.9046875E1,2.7563376E2,0E0,0E0,3.9771016E3,4.1834717E0,5.4227783E1,8.6234375E1,0E0,0E0,2.0175626E2,1.13140625E2,8.001436E3,1.992163E1,1.1764526E0,0E0,0E0,0E0,1.4634766E2,6.233368E-1,0E0,2.328125E0,0E0,4.0299707E2,2.6671875E1,0E0,0E0,0E0,3.8924164E1,3.8912604E2,1.6644531E1,0E0,0E0,0E0,0E0,0E0,0E0,0E0,0E0,0E0,0E0,0E0,0E0,0E0,0E0],"parents":[2147483647,0,0,1,1,2,2,3,3,4,4,5,5,6,6,7,7,10,10,11,11,12,12,13,13,16,16,17,17,18,18,19,19,20,20,24,24,25,25,27,27,29,29,30,30,34,34,35,35,36,36],"right_children":[2,4,6,8,10,12,14,16,-1,-1,18,20,22,24,-1,-1,26,28,30,32,34,-1,-1,-1,36,38,-1,40,-1,42,44,-1,-1,-1,46,48,50,-1,-1,-1,-1,-1,-1,-1,-1,-1,-1,-1,-1,-1,-1],"split_conditions":[7.1238E4,4.424445E4,7.613319E4,1.0023482E0,1E0,7.622576E4,1.0023482E0,2.806E3,6.677224E-2,6.776758E-2,4.411687E4,1.42078E3,2.9810803E5,1E0,6.669963E-2,6.635042E-2,4.411687E4,3.1571238E5,7.07539E4,7.504572E4,7.438696E4,-5.8023985E-2,6.114201E-2,6.667889E-2,7.959491E4,5.3E1,7.689155E-2,4.89E3,6.3304566E-2,5.084513E4,7.160268E4,6.884354E-2,-6.2309306E-2,8.0023155E-2,7.403417E4,7.993847E4,3.2489425E6,-5.7748552E-2,-7.2649114E-2,-5.733967E-2,-5.8082968E-2,7.4244134E-2,3.2158487E-2,-2.4314662E-2,-5.8499485E-2,-6.7046806E-2,7.628804E-2,7.392248E-2,-5.8030285E-2,7.557676E-2,6.6592775E-2],"split_indices":[1,0,1,7,5,0,7,0,0,0,1,3,0,5,0,0,1,0,0,4,0,0,0,0,1,1,0,1,0,0,0,0,0,0,1,0,4,0,0,0,0,0,0,0,0,0,0,0,0,0,0],"split_type":[0,0,0,0,0,0,0,0,0,0,0,0,0,0,0,0,0,0,0,0,0,0,0,0,0,0,0,0,0,0,0,0,0,0,0,0,0,0,0,0,0,0,0,0,0,0,0,0,0,0,0],"sum_hessian":[1.501616E5,9.382446E4,5.6337133E4,7.6987124E3,8.612575E4,1.277443E3,5.5059688E4,2.7683997E2,7.421872E3,1.7089425E3,8.4416805E4,7.315307E2,5.459123E2,1.7236883E4,3.7822805E4,1.4088963E2,1.3595035E2,7.584905E4,8.567765E3,4.0163263E2,3.2989804E2,5.369648E2,8.947526E0,7.907407E3,9.329476E3,1.0477876E2,3.1171581E1,7.583045E4,1.8586842E1,3.115647E3,5.4521177E3,3.994441E2,2.1885545E0,2.4784134E2,8.2056694E1,2.8000287E2,9.049473E3,4.9275055E1,5.5503704E1,5.144314E4,2.4387316E4,7.4948755E2,2.3661594E3,5.9623188E1,5.3924946E3,4.29259E0,7.77641E1,2.0404836E2,7.595452E1,8.42168E3,6.2779224E2],"tree_param":{"num_deleted":"0","num_feature":"9","num_nodes":"51","size_leaf_vector":"1"}},{"base_weights":[-2.3199169E-2,-8.31132E-1,1.3123488E0,1.2800167E0,-1.0202065E0,3.5490385E-1,1.3346539E0,3.5977784E-1,6.569452E-2,6.659227E-2,-1.0677857E0,1.409616E0,-1.1105814E0,9.8693365E-1,1.337795E0,6.526279E-2,-6.7125356E-1,-1.1417553E0,-4.2230016E-1,1.3363718E0,1.4970982E0,-5.7563316E-2,5.986498E-2,1.377915E0,-8.5909885E-1,1.394602E0,6.5621935E-2,-1.3041711E0,7.4575566E-2,-1.1423637E0,6.2227447E-2,8.10073E-1,-1.1533555E0,6.7301296E-2,9.527234E-1,7.728598E-2,1.3316348E0,6.5021686E-2,7.223051E-2,6.0318734E-2,-5.740538E-2,6.560735E-2,1.4632726E0,-5.7121713E-2,-7.110968E-2,-5.6875832E-2,-5.7627987E-2,1.9571975E-2,5.720846E-2,-2.5776694E-2,-5.802251E-2,7.353442E-2,-5.882444E-2,-6.4903475E-2,7.4749835E-2,7.371727E-2,6.551497E-2],"categories":[],"categories_nodes":[],"categories_segments":[],"categories_sizes":[],"default_left":[0,0,0,0,0,0,0,0,0,0,0,0,0,0,0,0,0,0,0,0,0,0,0,0,0,0,0,0,0,0,0,0,0,0,0,0,0,0,0,0,0,0,0,0,0,0,0,0,0,0,0,0,0,0,0,0,0],"id":20,"left_children":[1,3,5,7,9,11,13,15,-1,-1,17,19,21,23,25,-1,27,29,31,33,35,-1,-1,37,39,41,-1,43,-1,45,-1,47,49,-1,51,-1,53,-1,-1,-1,-1,-1,55,-1,-1,-1,-1,-1,-1,-1,-1,-1,-1,-1,-1,-1,-1],"loss_changes":[1.5590283E5,3.5935727E4,1.1625547E3,2.3020898E2,9.247883E3,1.9200267E3,5.68125E1,2.5833286E2,0E0,0E0,3.8663516E3,2.626831E0,5.0204468E1,3.4782867E2,7.4125E1,0E0,1.7578696E2,1.0689844E2,7.504039E3,2.0800781E-1,5.2246094E-1,0E0,0E0,1.7138672E-1,5.1860764E1,9.015039E1,0E0,2.6080322E-1,0E0,2.28125E0,0E0,4.3333398E2,2.3058105E1,0E0,1.6397928E1,0E0,3.6340714E1,0E0,0E0,0E0,0E0,0E0,1.3076172E1,0E0,0E0,0E0,0E0,0E0,0E0,0E0,0E0,0E0,0E0,0E0,0E0,0E0,0E0],"parents":[2147483647,0,0,1,1,2,2,3,3,4,4,5,5,6,6,7,7,10,10,11,11,12,12,13,13,14,14,16,16,17,17,18,18,19,19,20,20,23,23,24,24,25,25,27,27,29,29,31,31,32,32,34,34,36,36,42,42],"right_children":[2,4,6,8,10,12,14,16,-1,-1,18,20,22,24,26,-1,28,30,32,34,36,-1,-1,38,40,42,-1,44,-1,46,-1,48,50,-1,52,-1,54,-1,-1,-1,-1,-1,56,-1,-1,-1,-1,-1,-1,-1,-1,-1,-1,-1,-1,-1,-1],"split_conditions":[7.1238E4,4.424445E4,7.613319E4,1.0023482E0,1E0,7.622576E4,7.959491E4,2.806E3,6.569452E-2,6.659227E-2,4.411687E4,7.933096E4,2.9810803E5,7.993847E4,1.0023482E0,6.526279E-2,4.411687E4,3.1571238E5,7.07539E4,7.504572E4,7.438696E4,-5.7563316E-2,5.986498E-2,1.888722E4,1E0,1E0,6.5621935E-2,5.3E1,7.4575566E-2,4.89E3,6.2227447E-2,5.2773E4,7.160268E4,6.7301296E-2,7.343282E4,7.728598E-2,7.403417E4,6.5021686E-2,7.223051E-2,6.0318734E-2,-5.740538E-2,6.560735E-2,3.2489425E6,-5.7121713E-2,-7.110968E-2,-5.6875832E-2,-5.7627987E-2,1.9571975E-2,5.720846E-2,-2.5776694E-2,-5.802251E-2,7.353442E-2,-5.882444E-2,-6.4903475E-2,7.4749835E-2,7.371727E-2,6.551497E-2],"split_indices":[1,0,1,7,5,0,1,0,0,0,1,4,0,0,7,0,1,0,0,4,0,0,0,4,5,5,0,1,0,1,0,1,0,0,0,0,1,0,0,0,0,0,4,0,0,0,0,0,0,0,0,0,0,0,0,0,0],"split_type":[0,0,0,0,0,0,0,0,0,0,0,0,0,0,0,0,0,0,0,0,0,0,0,0,0,0,0,0,0,0,0,0,0,0,0,0,0,0,0,0,0,0,0,0,0,0,0,0,0,0,0,0,0,0,0,0,0],"sum_hessian":[1.4448181E5,9.002315E4,5.445866E4,7.3992754E3,8.2623875E4,1.2401884E3,5.3218473E4,2.6310767E2,7.1361675E3,1.6377112E3,8.0986164E4,7.21187E2,5.1900134E2,4.7927423E2,5.2739195E4,1.3710944E2,1.2599824E2,7.2659016E4,8.32715E3,4.0139584E2,3.1979117E2,5.10503E2,8.498357E0,3.9571677E2,8.355745E1,1.6259124E4,3.6480074E4,9.778048E1,2.8217762E1,7.2641016E4,1.799546E1,3.1004583E3,5.226692E3,3.8909613E2,1.229971E1,2.4071518E2,7.907598E1,1.925385E2,2.0317828E2,9.86691E0,7.369054E1,7.397184E3,8.861939E3,4.575632E1,5.202416E1,4.9311594E4,2.3329422E4,1.3770903E3,1.723368E3,5.8309566E1,5.1683823E3,1.0141829E1,2.1578815E0,4.2187643E0,7.4857216E1,8.255722E3,6.062186E2],"tree_param":{"num_deleted":"0","num_feature":"9","num_nodes":"57","size_leaf_vector":"1"}},{"base_weights":[-2.2222975E-2,-8.22553E-1,1.290608E0,9.820058E-1,-1.05112E0,3.4706047E-1,1.3127058E0,-7.4308324E-1,1.1419895E0,-1.1264243E0,-4.0215415E-1,1.3404437E0,-1.0932413E0,9.696279E-1,1.3157914E0,-1.1010624E0,6.436701E-2,-3.0653536E-1,1.2061788E0,-1.1325445E0,6.426435E-2,7.7831125E-1,-1.1146976E0,-4.964074E-2,1.3628929E0,-5.7128757E-2,5.9875E-2,1.3279277E0,-5.6497958E-2,1.36768E0,6.462958E-2,-5.722295E-2,-7.1892494E-1,6.425083E-2,-5.6964695E-2,-7.007286E-1,1.2353576E0,-1.1331495E0,1.0274025E-1,3.6349222E-1,1.102533E0,6.1966516E-2,-1.1200708E0,-3.494909E-2,1.3683281E0,1.2525904E0,6.9880836E-2,6.461554E-2,1.4304159E0,4.822519E-2,-5.817929E-2,-5.7252288E-2,7.484858E-2,5.0898433E-2,6.46448E-2,6.432744E-2,-5.667888E-2,6.813996E-2,-5.9269782E-2,6.805053E-2,3.7878003E-2,-5.650301E-2,-4.1927796E-2,6.9274336E-2,5.3998698E-2,6.412182E-2,-4.802998E-2,7.2030984E-2,6.452338E-2],"categories":[],"categories_nodes":[],"categories_segments":[],"categories_sizes":[],"default_left":[0,0,0,0,0,0,0,0,0,0,0,0,0,0,0,0,0,0,0,0,0,0,0,0,0,0,0,0,0,0,0,0,0,0,0,0,0,0,0,0,0,0,0,0,0,0,0,0,0,0,0,0,0,0,0,0,0,0,0,0,0,0,0,0,0,0,0,0,0],"id":21,"left_children":[1,3,5,7,9,11,13,15,17,19,21,23,25,27,29,31,-1,33,35,37,-1,39,41,-1,43,-1,-1,45,-1,47,-1,-1,49,-1,-1,51,53,55,-1,57,59,-1,61,-1,63,65,-1,-1,67,-1,-1,-1,-1,-1,-1,-1,-1,-1,-1,-1,-1,-1,-1,-1,-1,-1,-1,-1,-1],"loss_changes":[1.4626456E5,3.567259E4,1.0988203E3,2.6843213E3,3.7508984E3,1.7296366E3,5.3257812E1,6.0165173E2,8.277422E2,1.0166719E3,6.715388E3,3.8819336E1,5.7147644E1,3.4980515E2,5.96875E1,1.0828186E1,0E0,5.02968E2,4.749873E2,1.34625E2,0E0,4.0379785E2,6.435889E1,0E0,8.900757E0,0E0,0E0,3.2818604E-1,0E0,7.265625E1,0E0,0E0,5.6768604E1,0E0,0E0,1.2773705E2,1.03663086E2,7.250781E1,0E0,2.0446609E3,1.4934082E2,0E0,1.3022461E1,0E0,2.00354E0,1.4436798E1,0E0,0E0,1.0404297E1,0E0,0E0,0E0,0E0,0E0,0E0,0E0,0E0,0E0,0E0,0E0,0E0,0E0,0E0,0E0,0E0,0E0,0E0,0E0,0E0],"parents":[2147483647,0,0,1,1,2,2,3,3,4,4,5,5,6,6,7,7,8,8,9,9,10,10,11,11,12,12,13,13,14,14,15,15,17,17,18,18,19,19,21,21,22,22,24,24,27,27,29,29,32,32,35,35,36,36,37,37,39,39,40,40,42,42,44,44,45,45,48,48],"right_children":[2,4,6,8,10,12,14,16,18,20,22,24,26,28,30,32,-1,34,36,38,-1,40,42,-1,44,-1,-1,46,-1,48,-1,-1,50,-1,-1,52,54,56,-1,58,60,-1,62,-1,64,66,-1,-1,68,-1,-1,-1,-1,-1,-1,-1,-1,-1,-1,-1,-1,-1,-1,-1,-1,-1,-1,-1,-1],"split_conditions":[7.1238E4,4.417496E4,7.613319E4,0E0,4.411687E4,7.617214E4,7.959491E4,1.0023482E0,1.0016339E0,1.0023482E0,7.101467E4,1.0016339E0,3.2489425E6,8.039785E4,1.0023482E0,4.411687E4,6.436701E-2,1.0013847E0,5.3E1,3.9804197E5,6.426435E-2,5.2773E4,1E0,-4.964074E-2,0E0,-5.7128757E-2,5.9875E-2,4.531041E4,-5.6497958E-2,1E0,6.462958E-2,-5.722295E-2,4.5322E4,6.425083E-2,-5.6964695E-2,1.0023482E0,1.0023482E0,1E0,1.0274025E-1,5.180217E4,6.242096E4,6.1966516E-2,2.3914165E6,-3.494909E-2,7.511361E4,1E0,6.9880836E-2,6.461554E-2,3.2489425E6,4.822519E-2,-5.817929E-2,-5.7252288E-2,7.484858E-2,5.0898433E-2,6.46448E-2,6.432744E-2,-5.667888E-2,6.813996E-2,-5.9269782E-2,6.805053E-2,3.7878003E-2,-5.650301E-2,-4.1927796E-2,6.9274336E-2,5.3998698E-2,6.412182E-2,-4.802998E-2,7.2030984E-2,6.452338E-2],"split_indices":[1,8,1,8,1,8,1,7,7,7,8,7,4,8,7,1,0,7,1,8,0,1,5,0,8,0,0,8,0,5,0,0,1,0,0,7,7,5,0,8,8,0,4,0,8,5,0,0,4,0,0,0,0,0,0,0,0,0,0,0,0,0,0,0,0,0,0,0,0],"split_type":[0,0,0,0,0,0,0,0,0,0,0,0,0,0,0,0,0,0,0,0,0,0,0,0,0,0,0,0,0,0,0,0,0,0,0,0,0,0,0,0,0,0,0,0,0,0,0,0,0,0,0,0,0,0,0,0,0,0,0,0,0,0,0,0,0,0,0,0,0],"sum_hessian":[1.3920503E5,8.648332E4,5.272171E4,9.722215E3,7.67611E4,1.2068594E3,5.151485E4,8.2480273E2,8.897412E3,6.877939E4,7.981712E3,7.142837E2,4.9257565E2,4.6199768E2,5.1052855E4,7.0156854E2,1.232342E2,3.773855E2,8.520027E3,6.860582E4,1.7356895E2,3.0043445E3,4.9773677E3,6.394974E0,7.0788873E2,4.8268176E2,9.89389E0,3.9496365E2,6.7034004E1,1.5755789E4,3.5297066E4,6.282302E2,7.333834E1,1.294466E2,2.4793892E2,1.2805894E2,8.391968E3,6.8593445E4,1.2376406E1,1.318955E3,1.6853895E3,1.0812474E1,4.966555E3,1.5256276E0,7.063631E2,1.9890823E2,1.9605544E2,7.1670703E3,8.588719E3,1.507965E1,5.825869E1,1.0692126E2,2.1137688E1,1.760227E3,6.631741E3,1.1600729E1,6.858184E4,8.01783E2,5.1717194E2,9.6179803E2,7.235915E2,4.793448E3,1.7310677E2,6.6310034E2,4.326278E1,1.966765E2,2.23173E0,7.9963975E3,5.92321E2],"tree_param":{"num_deleted":"0","num_feature":"9","num_nodes":"69","size_leaf_vector":"1"}},{"base_weights":[-2.2388685E-2,-8.149842E-1,1.2708117E0,9.650922E-1,-1.0421712E0,3.3560896E-1,1.2926384E0,1.1861922E0,-5.7078905E-2,-1.118498E0,-3.938534E-1,1.3451946E0,-1.0924859E0,9.4585943E-1,1.295769E0,9.230728E-2,1.2206626E0,6.326221E-2,-1.1230829E0,7.619508E-1,-1.1344558E0,1.2853563E0,1.4134061E0,-5.6732494E-2,5.804428E-2,1.3103652E0,-5.6105286E-2,1.3436238E0,6.371393E-2,1.1503007E0,-5.716414E-2,6.244553E-1,1.2365427E0,-1.1252216E0,1.4521918E0,3.561969E-1,1.08057E0,-1.1214923E-1,-1.1444588E0,6.4859755E-2,-5.212477E-2,7.358083E-2,1.2629564E0,1.3171251E0,-3.0672843E-2,6.370026E-2,1.4007733E0,-4.569143E-2,6.0753554E-2,6.3356504E-2,-3.270621E-2,6.370024E-2,5.6732204E-2,6.275852E-2,-5.6281388E-2,8.624039E-2,6.1819173E-2,5.96488E-2,-6.79832E-2,6.870877E-2,3.9622847E-2,-6.1403662E-2,7.002358E-2,-6.522145E-2,-5.6797173E-2,-7.506835E-2,7.262456E-2,6.630466E-2,4.6012472E-2,7.049062E-2,6.360408E-2],"categories":[],"categories_nodes":[],"categories_segments":[],"categories_sizes":[],"default_left":[0,0,0,0,0,0,0,0,0,0,0,0,0,0,0,0,0,0,0,0,0,0,0,0,0,0,0,0,0,0,0,0,0,0,0,0,0,0,0,0,0,0,0,0,0,0,0,0,0,0,0,0,0,0,0,0,0,0,0,0,0,0,0,0,0,0,0,0,0,0,0],"id":22,"left_children":[1,3,5,7,9,11,13,15,-1,17,19,21,23,25,27,29,31,-1,33,35,37,39,41,-1,-1,43,-1,45,-1,47,-1,49,51,53,55,57,59,61,63,-1,-1,-1,65,67,-1,-1,69,-1,-1,-1,-1,-1,-1,-1,-1,-1,-1,-1,-1,-1,-1,-1,-1,-1,-1,-1,-1,-1,-1,-1,-1],"loss_changes":[1.3726306E5,3.3578812E4,1.0383125E3,4.3787764E3,3.643164E3,1.6767382E3,5.2757812E1,3.2061328E2,0E0,7.2140625E2,6.6409585E3,9.63501E-1,4.7091614E1,3.3961642E2,4.896875E1,3.4241138E2,7.7299805E1,0E0,3.637578E2,3.913379E2,4.8222656E1,1.1656311E1,8.4124756E-1,0E0,0E0,5.7737427E0,0E0,5.8904297E1,0E0,1.9969833E1,0E0,1.7828021E2,2.9210938E1,6.492969E1,1.1028824E0,1.9173444E3,1.4244202E2,8.092655E1,4.8964844E0,0E0,0E0,0E0,5.0934036E1,1.3500977E-1,0E0,0E0,7.939453E0,0E0,0E0,0E0,0E0,0E0,0E0,0E0,0E0,0E0,0E0,0E0,0E0,0E0,0E0,0E0,0E0,0E0,0E0,0E0,0E0,0E0,0E0,0E0,0E0],"parents":[2147483647,0,0,1,1,2,2,3,3,4,4,5,5,6,6,7,7,9,9,10,10,11,11,12,12,13,13,14,14,15,15,16,16,18,18,19,19,20,20,21,21,22,22,25,25,27,27,29,29,31,31,32,32,33,33,34,34,35,35,36,36,37,37,38,38,42,42,43,43,46,46],"right_children":[2,4,6,8,10,12,14,16,-1,18,20,22,24,26,28,30,32,-1,34,36,38,40,42,-1,-1,44,-1,46,-1,48,-1,50,52,54,56,58,60,62,64,-1,-1,-1,66,68,-1,-1,70,-1,-1,-1,-1,-1,-1,-1,-1,-1,-1,-1,-1,-1,-1,-1,-1,-1,-1,-1,-1,-1,-1,-1,-1],"split_conditions":[7.1238E4,4.417496E4,7.613319E4,7.160268E4,4.411687E4,7.622576E4,7.959491E4,0E0,-5.7078905E-2,3.952563E4,7.07539E4,7.933096E4,2.9810803E5,8.039785E4,2.9810803E5,4.517835E4,1.02E2,6.326221E-2,3.9804197E5,5.2773E4,7.101467E4,7.511361E4,7.407647E4,-5.6732494E-2,5.804428E-2,1.2342963E5,-5.6105286E-2,1E0,6.371393E-2,5.3E1,-5.716414E-2,2.39122E4,3.952563E4,1E0,1.2235519E5,5.284029E4,6.122647E4,6.991257E4,7.622576E4,6.4859755E-2,-5.212477E-2,7.358083E-2,7.403417E4,7.993847E4,-3.0672843E-2,6.370026E-2,3.2489425E6,-4.569143E-2,6.0753554E-2,6.3356504E-2,-3.270621E-2,6.370024E-2,5.6732204E-2,6.275852E-2,-5.6281388E-2,8.624039E-2,6.1819173E-2,5.96488E-2,-6.79832E-2,6.870877E-2,3.9622847E-2,-6.1403662E-2,7.002358E-2,-6.522145E-2,-5.6797173E-2,-7.506835E-2,7.262456E-2,6.630466E-2,4.6012472E-2,7.049062E-2,6.360408E-2],"split_indices":[1,8,1,0,1,0,1,8,0,0,0,4,0,8,0,0,1,0,8,1,8,8,8,0,0,0,0,5,0,1,0,0,0,5,0,0,0,1,0,0,0,0,1,0,0,0,4,0,0,0,0,0,0,0,0,0,0,0,0,0,0,0,0,0,0,0,0,0,0,0,0],"split_type":[0,0,0,0,0,0,0,0,0,0,0,0,0,0,0,0,0,0,0,0,0,0,0,0,0,0,0,0,0,0,0,0,0,0,0,0,0,0,0,0,0,0,0,0,0,0,0,0,0,0,0,0,0,0,0,0,0,0,0,0,0,0,0,0,0,0,0,0,0,0,0],"sum_hessian":[1.3391514E5,8.3028055E4,5.088708E4,9.396954E3,7.36311E4,1.1609414E3,4.9726137E4,8.504794E3,8.921611E2,6.587491E4,7.756197E3,6.8016187E2,4.807795E2,4.4759732E2,4.927854E4,2.599273E2,8.244866E3,1.2593492E2,6.574897E4,3.0290112E3,4.7271855E3,3.728897E2,3.072722E2,4.7243597E2,8.343521E0,3.808363E2,6.676101E1,1.5252594E4,3.4025945E4,1.4006418E2,1.1986314E2,2.1495358E2,8.0299126E3,6.569498E4,5.3993298E1,1.3332576E3,1.6957537E3,4.592422E1,4.6812617E3,3.7144342E2,1.4463084E0,2.1521999E2,9.2052185E1,3.7981708E2,1.0192311E0,6.88667E3,8.365924E3,3.8625283E0,1.3620164E2,1.4305586E2,7.189772E1,5.8629575E3,2.166955E3,1.0680609E1,6.56843E4,2.0767197E1,3.32261E1,8.964082E2,4.3684933E2,8.3800464E2,8.57749E2,2.6535776E1,1.9388443E1,2.2890259E2,4.452359E3,5.462435E0,8.658975E1,3.6913455E2,1.0682515E1,7.8075723E3,5.583518E2],"tree_param":{"num_deleted":"0","num_feature":"9","num_nodes":"71","size_leaf_vector":"1"}},{"base_weights":[-2.329344E-2,-8.086825E-1,1.2526623E0,9.4824314E-1,-1.0345E0,3.424438E-1,1.2742167E0,-7.2190416E-1,1.1047531E0,-1.1107751E0,-3.9337146E-1,1.2746512E0,-1.0761772E0,9.4896126E-1,1.2771701E0,-1.0838401E0,6.261696E-2,-3.1044215E-1,1.1674999E0,-1.1167474E0,6.2474925E-2,7.0302045E-1,-1.0955919E0,-4.9398474E-2,1.2988122E0,-5.6333512E-2,5.80204E-2,6.4035885E-2,-5.562507E-2,1.3211637E0,6.286712E-2,-5.6474287E-2,-6.730741E-1,6.2460303E-2,-5.6175377E-2,-6.550351E-1,1.1957164E0,-1.1173556E0,9.294296E-2,5.2893376E-1,1.3988042E0,6.0138315E-2,-1.1010243E0,-3.7945326E-2,1.3059253E0,6.285398E-2,1.3737171E0,4.902116E-2,-5.7091136E-2,-5.650366E-2,7.406194E-2,4.8366107E-2,6.288699E-2,6.135695E-2,-5.588735E-2,4.4780996E-2,-7.923461E-2,-4.6969753E-2,7.067716E-2,-5.5512346E-2,-4.36397E-2,6.677264E-2,5.7886124E-2,6.9098406E-2,6.319844E-2],"categories":[],"categories_nodes":[],"categories_segments":[],"categories_sizes":[],"default_left":[0,0,0,0,0,0,0,0,0,0,0,0,0,0,0,0,0,0,0,0,0,0,0,0,0,0,0,0,0,0,0,0,0,0,0,0,0,0,0,0,0,0,0,0,0,0,0,0,0,0,0,0,0,0,0,0,0,0,0,0,0,0,0,0,0],"id":23,"left_children":[1,3,5,7,9,11,13,15,17,19,21,23,25,27,29,31,-1,33,35,37,-1,39,41,-1,43,-1,-1,-1,-1,45,-1,-1,47,-1,-1,49,51,53,-1,55,57,-1,59,-1,61,-1,63,-1,-1,-1,-1,-1,-1,-1,-1,-1,-1,-1,-1,-1,-1,-1,-1,-1,-1],"loss_changes":[1.2910836E5,3.1640488E4,9.626094E2,2.3750757E3,3.4552734E3,1.504839E3,4.4859375E1,5.5788855E2,7.3786035E2,8.9158594E2,5.7864834E3,3.881299E1,5.2281067E1,2.9917975E2,3.978125E1,1.1590637E1,0E0,4.495409E2,4.0976367E2,1.1610156E2,0E0,3.5471423E2,5.8524414E1,0E0,1.0939697E1,0E0,0E0,0E0,0E0,4.792578E1,0E0,0E0,5.4098824E1,0E0,0E0,1.2537483E2,1.0973047E2,5.9140625E1,0E0,1.821889E3,2.154663E1,0E0,8.652832E0,0E0,1.4196777E0,0E0,5.578125E0,0E0,0E0,0E0,0E0,0E0,0E0,0E0,0E0,0E0,0E0,0E0,0E0,0E0,0E0,0E0,0E0,0E0,0E0],"parents":[2147483647,0,0,1,1,2,2,3,3,4,4,5,5,6,6,7,7,8,8,9,9,10,10,11,11,12,12,13,13,14,14,15,15,17,17,18,18,19,19,21,21,22,22,24,24,29,29,32,32,35,35,36,36,37,37,39,39,40,40,42,42,44,44,46,46],"right_children":[2,4,6,8,10,12,14,16,18,20,22,24,26,28,30,32,-1,34,36,38,-1,40,42,-1,44,-1,-1,-1,-1,46,-1,-1,48,-1,-1,50,52,54,-1,56,58,-1,60,-1,62,-1,64,-1,-1,-1,-1,-1,-1,-1,-1,-1,-1,-1,-1,-1,-1,-1,-1,-1,-1],"split_conditions":[7.1238E4,4.417496E4,7.613319E4,0E0,4.411687E4,7.617214E4,7.959491E4,1.0023482E0,1.0016339E0,1.0023482E0,7.101467E4,1.0016339E0,3.271378E6,8.039785E4,1.0023482E0,4.411687E4,6.261696E-2,1.0013847E0,5.3E1,3.9804197E5,6.2474925E-2,6.2207E4,1E0,-4.9398474E-2,0E0,-5.6333512E-2,5.80204E-2,6.4035885E-2,-5.562507E-2,1E0,6.286712E-2,-5.6474287E-2,4.5322E4,6.2460303E-2,-5.6175377E-2,1.0023482E0,1.0023482E0,1E0,9.294296E-2,6.242096E4,1.0016339E0,6.0138315E-2,2.1613125E6,-3.7945326E-2,7.407647E4,6.285398E-2,2.810996E6,4.902116E-2,-5.7091136E-2,-5.650366E-2,7.406194E-2,4.8366107E-2,6.288699E-2,6.135695E-2,-5.588735E-2,4.4780996E-2,-7.923461E-2,-4.6969753E-2,7.067716E-2,-5.5512346E-2,-4.36397E-2,6.677264E-2,5.7886124E-2,6.9098406E-2,6.319844E-2],"split_indices":[1,8,1,8,1,8,1,7,7,7,8,7,3,8,7,1,0,7,1,8,0,1,5,0,8,0,0,0,0,5,0,0,1,0,0,7,7,5,0,8,7,0,3,0,8,0,3,0,0,0,0,0,0,0,0,0,0,0,0,0,0,0,0,0,0],"split_type":[0,0,0,0,0,0,0,0,0,0,0,0,0,0,0,0,0,0,0,0,0,0,0,0,0,0,0,0,0,0,0,0,0,0,0,0,0,0,0,0,0,0,0,0,0,0,0,0,0,0,0,0,0,0,0,0,0,0,0,0,0,0,0,0,0],"sum_hessian":[1.28833E5,7.974681E4,4.9086188E4,9.082115E3,7.0664695E4,1.1358811E3,4.795031E4,7.778559E2,8.304259E3,6.315089E4,7.5138037E3,6.8551526E2,4.5036584E2,4.343756E2,4.751593E4,6.5772656E2,1.201293E2,3.5239392E2,7.951865E3,6.2992027E4,1.5886232E2,2.9335647E3,4.5802393E3,6.8213162E0,6.786939E2,4.4090817E2,9.457669E0,3.7448715E2,5.9888447E1,1.4741627E4,3.2774305E4,5.903727E2,6.735388E1,1.2057214E2,2.3182178E2,1.2089548E2,7.8309697E3,6.2979777E4,1.2249659E1,2.34788E3,5.856848E2,1.0280677E1,4.5699585E3,1.9739553E0,6.7672E2,6.653364E3,8.0882627E3,1.4635611E1,5.2718273E1,9.928804E1,2.1607439E1,1.6759742E3,6.154995E3,9.986535E0,6.2969793E4,2.0012634E3,3.4661652E2,3.275811E0,5.82409E2,4.3887495E3,1.812088E2,5.5761206E2,1.191079E2,7.511909E3,5.7635333E2],"tree_param":{"num_deleted":"0","num_feature":"9","num_nodes":"65","size_leaf_vector":"1"}},{"base_weights":[-2.125483E-2,-8.154273E-1,1.2126924E0,9.3031734E-1,-1.0380573E0,2.724261E-1,1.2570132E0,1.1649764E0,-1.1425182E0,-1.1032964E0,-4.2480403E-1,1.2822434E0,-1.10201E0,9.192884E-1,1.2600733E0,2.2228023E-1,1.1926067E0,-1.3397093E0,-5.6397658E-2,6.1609264E-2,-1.1078278E0,7.9356194E-1,-1.1541784E0,1.3588694E0,1.0163287E0,-5.6066174E-2,5.5892E-2,1.2547077E0,-5.527277E-2,1.3007077E0,6.2083066E-2,1.1150787E0,-5.6127228E-2,6.6757536E-1,1.2064401E0,-5.4600444E-2,-1.5108138E0,-1.109978E0,6.8875425E-2,5.086302E-1,1.186755E0,-1.6220262E0,-1.1288444E0,1.2431175E0,1.4751669E0,-1.6166054E0,1.3587853E0,1.2640178E0,-3.5172384E-2,1.3487594E0,6.207011E-2,-4.4044305E-2,5.877763E-2,6.1689474E-2,-2.8853668E-2,6.2069412E-2,5.5015903E-2,-5.0087817E-2,-8.1456505E-2,-5.5520404E-2,6.0740262E-2,5.1485356E-2,-6.130063E-2,6.905102E-2,4.3470453E-2,-6.4053E-2,-1.0741264E-1,-6.2838666E-2,-5.607893E-2,-4.909153E-2,6.261539E-2,8.116136E-2,6.982961E-2,-6.6994205E-2,-1.1078191E-1,6.9672495E-2,5.717189E-2,6.3758515E-2,4.0879346E-2,6.7820616E-2,6.196646E-2],"categories":[],"categories_nodes":[],"categories_segments":[],"categories_sizes":[],"default_left":[0,0,0,0,0,0,0,0,0,0,0,0,0,0,0,0,0,0,0,0,0,0,0,0,0,0,0,0,0,0,0,0,0,0,0,0,0,0,0,0,0,0,0,0,0,0,0,0,0,0,0,0,0,0,0,0,0,0,0,0,0,0,0,0,0,0,0,0,0,0,0,0,0,0,0,0,0,0,0,0,0],"id":24,"left_children":[1,3,5,7,9,11,13,15,17,19,21,23,25,27,29,31,33,35,-1,-1,37,39,41,43,45,-1,-1,47,-1,49,-1,51,-1,53,55,-1,57,59,-1,61,63,65,67,69,71,73,75,77,-1,79,-1,-1,-1,-1,-1,-1,-1,-1,-1,-1,-1,-1,-1,-1,-1,-1,-1,-1,-1,-1,-1,-1,-1,-1,-1,-1,-1,-1,-1,-1,-1],"loss_changes":[1.21396664E5,2.9293887E4,2.0211641E3,4.148036E3,2.6739062E3,3.0338486E3,4.6710938E1,1.9922168E2,9.802246E-1,6.4077344E2,5.7140537E3,2.4291992E1,4.094983E1,2.863998E2,3.271875E1,2.6456964E2,5.323242E1,6.532135E-1,0E0,0E0,3.2378125E2,2.6918237E2,4.5838867E1,1.1293091E1,2.5990897E2,0E0,0E0,7.4611816E0,0E0,3.9058594E1,0E0,1.7005768E1,0E0,1.3689749E2,2.5515625E1,0E0,1.4665222E-1,6.1585938E1,0E0,1.2649066E3,6.1131226E1,3.3906982E1,2.1401367E0,1.13526E1,3.3295898E0,2.560112E0,2.987976E-1,7.4554443E-1,0E0,4.921875E0,0E0,0E0,0E0,0E0,0E0,0E0,0E0,0E0,0E0,0E0,0E0,0E0,0E0,0E0,0E0,0E0,0E0,0E0,0E0,0E0,0E0,0E0,0E0,0E0,0E0,0E0,0E0,0E0,0E0,0E0,0E0],"parents":[2147483647,0,0,1,1,2,2,3,3,4,4,5,5,6,6,7,7,8,8,9,9,10,10,11,11,12,12,13,13,14,14,15,15,16,16,17,17,20,20,21,21,22,22,23,23,24,24,27,27,29,29,31,31,33,33,34,34,36,36,37,37,39,39,40,40,41,41,42,42,43,43,44,44,45,45,46,46,47,47,49,49],"right_children":[2,4,6,8,10,12,14,16,18,20,22,24,26,28,30,32,34,36,-1,-1,38,40,42,44,46,-1,-1,48,-1,50,-1,52,-1,54,56,-1,58,60,-1,62,64,66,68,70,72,74,76,78,-1,80,-1,-1,-1,-1,-1,-1,-1,-1,-1,-1,-1,-1,-1,-1,-1,-1,-1,-1,-1,-1,-1,-1,-1,-1,-1,-1,-1,-1,-1,-1,-1],"split_conditions":[6.5693E4,4.417496E4,7.613319E4,6.599743E4,4.411687E4,7.622576E4,7.959491E4,0E0,7.160268E4,3.952563E4,6.599743E4,7.199562E4,3.271378E6,8.039785E4,2.9810803E5,4.517835E4,1.02E2,0E0,-5.6397658E-2,6.1609264E-2,3.9804197E5,5.5177E4,7.07539E4,6.032037E4,7.2495E4,-5.6066174E-2,5.5892E-2,1.2342963E5,-5.527277E-2,1E0,6.2083066E-2,5.3E1,-5.6127228E-2,2.39122E4,3.952563E4,-5.4600444E-2,5.3E1,1E0,6.8875425E-2,5.478207E4,6.122647E4,5.645141E4,7.622576E4,1E0,6.780746E4,7.1238E4,7.511361E4,7.993847E4,-3.5172384E-2,3.2489425E6,6.207011E-2,-4.4044305E-2,5.877763E-2,6.1689474E-2,-2.8853668E-2,6.2069412E-2,5.5015903E-2,-5.0087817E-2,-8.1456505E-2,-5.5520404E-2,6.0740262E-2,5.1485356E-2,-6.130063E-2,6.905102E-2,4.3470453E-2,-6.4053E-2,-1.0741264E-1,-6.2838666E-2,-5.607893E-2,-4.909153E-2,6.261539E-2,8.116136E-2,6.982961E-2,-6.6994205E-2,-1.1078191E-1,6.9672495E-2,5.717189E-2,6.3758515E-2,4.0879346E-2,6.7820616E-2,6.196646E-2],"split_indices":[1,8,1,0,1,0,1,8,0,0,0,8,3,8,0,0,1,8,0,0,8,1,0,8,1,0,0,0,0,6,0,1,0,0,0,0,1,6,0,0,0,1,0,6,8,1,8,0,0,4,0,0,0,0,0,0,0,0,0,0,0,0,0,0,0,0,0,0,0,0,0,0,0,0,0,0,0,0,0,0,0],"split_type":[0,0,0,0,0,0,0,0,0,0,0,0,0,0,0,0,0,0,0,0,0,0,0,0,0,0,0,0,0,0,0,0,0,0,0,0,0,0,0,0,0,0,0,0,0,0,0,0,0,0,0,0,0,0,0,0,0,0,0,0,0,0,0,0,0,0,0,0,0,0,0,0,0,0,0,0,0,0,0,0,0],"sum_hessian":[1.23876305E5,7.5368945E4,4.850736E4,8.524132E3,6.684481E4,2.183863E3,4.6323496E4,7.6576694E3,8.664621E2,6.041677E4,6.4280454E3,1.258957E3,9.249061E2,4.1866837E2,4.590483E4,2.1831145E2,7.439358E3,5.3339012E1,8.131231E2,1.1647308E2,6.0300297E4,2.4070906E3,4.020955E3,9.741389E2,2.8481808E2,9.174191E2,7.4869795E0,3.5949475E2,5.917363E1,1.4292449E4,3.161238E4,1.3130914E2,8.7002304E1,1.9224287E2,7.247115E3,2.4807875E1,2.8531136E1,6.0248727E4,5.1570976E1,1.3970188E3,1.0100717E3,2.03313E2,3.817642E3,4.9407303E2,4.800659E2,3.23533E1,2.524648E2,3.5814642E2,1.3483297E0,7.883318E3,6.409131E3,3.4624789E0,1.27846664E2,1.3213907E2,6.0103817E1,5.4436943E3,1.8034209E3,7.1660113E0,2.1365124E1,6.0238105E4,1.0620526E1,1.0746165E3,3.224023E2,6.2445544E2,3.8561624E2,1.2545769E2,7.7855316E1,1.9592752E2,3.6217146E3,1.5970204E0,4.9247598E2,1.5962398E2,3.2044193E2,2.4344276E1,8.009022E0,2.1274797E2,3.9716827E1,3.4760635E2,1.0540069E1,7.357397E3,5.2592065E2],"tree_param":{"num_deleted":"0","num_feature":"9","num_nodes":"81","size_leaf_vector":"1"}},{"base_weights":[-2.2643112E-2,-8.09702E-1,1.1971644E0,9.1647464E-1,-1.0307467E0,2.6929525E-1,1.2411122E0,-7.0203847E-1,1.0697187E0,-1.0965364E0,-4.2057776E-1,1.2190993E0,-1.097405E0,9.049442E-1,1.2441694E0,-1.0641632E0,6.1090615E-2,-2.8872505E-1,1.1313338E0,-1.1025199E0,6.0941376E-2,7.8478485E-1,-1.0792572E0,-5.3124364E-2,1.2468873E0,-5.5751123E-2,5.4213088E-2,6.2120225E-2,-5.492434E-2,1.2817858E0,6.135543E-2,-5.578764E-2,-6.0110897E-1,6.0929734E-2,-5.5473246E-2,-6.416948E-1,1.1594447E0,-1.1031839E0,8.630407E-2,4.5757014E-1,1.117412E0,-1.7434624E-1,-1.0996085E0,1.3178898E0,1.0011398E0,1.3260432E0,6.1342794E-2,4.500865E-2,-5.6264814E-2,-5.5818506E-2,7.27953E-2,4.372039E-2,6.1378337E-2,-5.5181492E-2,5.9869945E-2,5.9822716E-2,-5.6711268E-2,6.26316E-2,4.3706987E-2,-7.8380756E-2,7.070473E-2,-5.524922E-2,5.7880647E-2,-4.5002617E-2,6.635715E-2,-8.1984736E-2,6.608241E-2,6.665828E-2,6.123823E-2],"categories":[],"categories_nodes":[],"categories_segments":[],"categories_sizes":[],"default_left":[0,0,0,0,0,0,0,0,0,0,0,0,0,0,0,0,0,0,0,0,0,0,0,0,0,0,0,0,0,0,0,0,0,0,0,0,0,0,0,0,0,0,0,0,0,0,0,0,0,0,0,0,0,0,0,0,0,0,0,0,0,0,0,0,0,0,0,0,0],"id":25,"left_children":[1,3,5,7,9,11,13,15,17,19,21,23,25,27,29,31,-1,33,35,37,-1,39,41,-1,43,-1,-1,-1,-1,45,-1,-1,47,-1,-1,49,51,53,-1,55,57,59,61,63,65,67,-1,-1,-1,-1,-1,-1,-1,-1,-1,-1,-1,-1,-1,-1,-1,-1,-1,-1,-1,-1,-1,-1,-1],"loss_changes":[1.1412873E5,2.75708E4,1.9007969E3,2.035272E3,2.5708203E3,2.7398123E3,4.4609375E1,4.959987E2,6.275537E2,8.023594E2,4.951755E3,8.026587E1,3.447473E1,2.7504898E2,2.6734375E1,1.3618042E1,0E0,4.045804E2,3.5804492E2,1.10234375E2,0E0,2.3938086E2,7.407568E1,0E0,2.0152832E1,0E0,0E0,0E0,0E0,3.1777344E1,0E0,0E0,4.990399E1,0E0,0E0,1.1366757E2,1.3595898E2,6.0476562E1,0E0,1.3101422E3,3.4836792E1,2.0115324E2,4.9135742E1,2.0723633E1,2.3916861E2,3.8466797E0,0E0,0E0,0E0,0E0,0E0,0E0,0E0,0E0,0E0,0E0,0E0,0E0,0E0,0E0,0E0,0E0,0E0,0E0,0E0,0E0,0E0,0E0,0E0],"parents":[2147483647,0,0,1,1,2,2,3,3,4,4,5,5,6,6,7,7,8,8,9,9,10,10,11,11,12,12,13,13,14,14,15,15,17,17,18,18,19,19,21,21,22,22,24,24,29,29,32,32,35,35,36,36,37,37,39,39,40,40,41,41,42,42,43,43,44,44,45,45],"right_children":[2,4,6,8,10,12,14,16,18,20,22,24,26,28,30,32,-1,34,36,38,-1,40,42,-1,44,-1,-1,-1,-1,46,-1,-1,48,-1,-1,50,52,54,-1,56,58,60,62,64,66,68,-1,-1,-1,-1,-1,-1,-1,-1,-1,-1,-1,-1,-1,-1,-1,-1,-1,-1,-1,-1,-1,-1,-1],"split_conditions":[6.5693E4,4.417496E4,7.613319E4,0E0,4.411687E4,7.617214E4,7.959491E4,1.0023482E0,1.0016339E0,1.0023482E0,6.455226E4,1.0016339E0,3.271378E6,8.039785E4,1.0023482E0,4.411687E4,6.1090615E-2,1.0013847E0,5.3E1,3.9804197E5,6.0941376E-2,5.2773E4,6.567671E4,-5.3124364E-2,7.199562E4,-5.5751123E-2,5.4213088E-2,6.2120225E-2,-5.492434E-2,1E0,6.135543E-2,-5.578764E-2,4.5322E4,6.0929734E-2,-5.5473246E-2,1.0023482E0,1.0023482E0,1E0,8.630407E-2,5.180217E4,6.032037E4,6.3858E4,1E0,0E0,7.2495E4,3.2489425E6,6.1342794E-2,4.500865E-2,-5.6264814E-2,-5.5818506E-2,7.27953E-2,4.372039E-2,6.1378337E-2,-5.5181492E-2,5.9869945E-2,5.9822716E-2,-5.6711268E-2,6.26316E-2,4.3706987E-2,-7.8380756E-2,7.070473E-2,-5.524922E-2,5.7880647E-2,-4.5002617E-2,6.635715E-2,-8.1984736E-2,6.608241E-2,6.665828E-2,6.123823E-2],"split_indices":[1,8,1,8,1,8,1,7,7,7,8,7,3,8,7,1,0,7,1,8,0,1,8,0,8,0,0,0,0,6,0,0,1,0,0,7,7,6,0,8,8,1,6,8,1,4,0,0,0,0,0,0,0,0,0,0,0,0,0,0,0,0,0,0,0,0,0,0,0],"split_type":[0,0,0,0,0,0,0,0,0,0,0,0,0,0,0,0,0,0,0,0,0,0,0,0,0,0,0,0,0,0,0,0,0,0,0,0,0,0,0,0,0,0,0,0,0,0,0,0,0,0,0,0,0,0,0,0,0,0,0,0,0,0,0,0,0,0,0,0,0],"sum_hessian":[1.1887461E5,7.225421E4,4.66204E4,8.201798E3,6.4052418E4,2.1086064E3,4.451179E4,7.090861E2,7.4927114E3,5.7817605E4,6.234812E3,1.2441077E3,8.6449884E2,4.0381128E2,4.410798E4,5.971348E2,1.119513E2,3.2494196E2,7.1677695E3,5.7669098E4,1.4850754E2,2.2030708E3,4.0317415E3,1.4521962E1,1.2295857E3,8.580588E2,6.4400916E0,3.4592337E2,5.7887882E1,1.3739697E4,3.0368281E4,5.360078E2,6.112701E1,1.1438494E2,2.10557E2,1.11528435E2,7.0562407E3,5.765617E4,1.2925917E1,1.1117683E3,1.0913025E3,8.88894E1,3.942852E3,9.5057776E2,2.790079E2,7.596224E3,6.1434736E3,1.5633915E1,4.5493095E1,9.132898E1,2.0199451E1,1.3637723E3,5.6924688E3,5.764552E4,1.0654049E1,7.594794E2,3.5228894E2,6.987574E2,3.92545E2,4.736087E1,4.1528526E1,3.9339932E3,8.858715E0,3.5493557E0,9.4702844E2,2.9751785E1,2.4925613E2,7.0857607E3,5.1046338E2],"tree_param":{"num_deleted":"0","num_feature":"9","num_nodes":"69","size_leaf_vector":"1"}},{"base_weights":[-2.2174764E-2,-8.036747E-1,1.1828384E0,9.035614E-1,-1.0232285E0,2.7362692E-1,1.2264394E0,-7.1160567E-1,1.0558208E0,-1.0904824E0,-4.0729126E-1,1.2001598E0,-1.087188E0,8.9752614E-1,1.2294141E0,-5.5120774E-2,-4.4674298E-1,-1.0157147E-1,1.1065823E0,-1.0931885E0,6.5263525E-2,7.7770865E-1,-1.0679473E0,-5.033017E-2,1.2162517E0,-5.543494E-2,5.478816E-2,6.1104562E-2,-5.4542877E-2,1.2637157E0,6.067946E-2,7.9151976E-1,-5.131361E-1,1.0044612E0,-8.312922E-1,6.1072916E-2,9.5261776E-1,6.01398E-2,-1.0949565E0,5.087486E-1,1.1678149E0,-1.0750293E0,6.2896304E-2,1.2839628E0,9.773811E-1,6.0667243E-2,1.3043962E0,5.144406E-2,2.6867975E-2,-1.999144E-2,-5.483091E-2,5.7195056E-2,4.002156E-2,-4.846073E-2,-1.9443823E-2,4.9043596E-2,-7.4003E-2,-5.4763358E-2,5.3526748E-2,4.666707E-2,-6.6850774E-2,6.5707915E-2,4.8614684E-2,5.8036447E-2,-5.4068636E-2,5.833244E-2,6.9857314E-2,-7.873741E-2,6.4703524E-2,6.5538645E-2,6.0558707E-2],"categories":[],"categories_nodes":[],"categories_segments":[],"categories_sizes":[],"default_left":[0,0,0,0,0,0,0,0,0,0,0,0,0,0,0,0,0,0,0,0,0,0,0,0,0,0,0,0,0,0,0,0,0,0,0,0,0,0,0,0,0,0,0,0,0,0,0,0,0,0,0,0,0,0,0,0,0,0,0,0,0,0,0,0,0,0,0,0,0,0,0],"id":26,"left_children":[1,3,5,7,9,11,13,15,17,19,21,23,25,27,29,-1,31,33,35,37,-1,39,41,-1,43,-1,-1,-1,-1,45,-1,47,49,51,53,-1,55,-1,57,59,61,63,-1,65,67,-1,69,-1,-1,-1,-1,-1,-1,-1,-1,-1,-1,-1,-1,-1,-1,-1,-1,-1,-1,-1,-1,-1,-1,-1,-1],"loss_changes":[1.0748344E5,2.5952023E4,1.7796484E3,1.9410054E3,2.5407422E3,2.593558E3,4.0828125E1,6.992285E1,4.2372803E2,3.6E2,4.7298022E3,4.4677246E1,4.034558E1,2.5157251E2,2.1511719E1,0E0,3.3879013E1,2.46083E2,1.2100879E2,2.2557031E2,0E0,2.2633203E2,6.524121E1,0E0,1.8400513E1,0E0,0E0,0E0,0E0,2.5835938E1,0E0,7.208252E-1,2.5149773E1,2.5336761E0,1.0827675E1,0E0,2.0463647E2,0E0,3.8304688E1,1.0059033E3,2.3954712E1,5.610547E1,0E0,1.0899902E1,2.2234756E2,0E0,2.8046875E0,0E0,0E0,0E0,0E0,0E0,0E0,0E0,0E0,0E0,0E0,0E0,0E0,0E0,0E0,0E0,0E0,0E0,0E0,0E0,0E0,0E0,0E0,0E0,0E0],"parents":[2147483647,0,0,1,1,2,2,3,3,4,4,5,5,6,6,7,7,8,8,9,9,10,10,11,11,12,12,13,13,14,14,16,16,17,17,18,18,19,19,21,21,22,22,24,24,29,29,31,31,32,32,33,33,34,34,36,36,38,38,39,39,40,40,41,41,43,43,44,44,46,46],"right_children":[2,4,6,8,10,12,14,16,18,20,22,24,26,28,30,-1,32,34,36,38,-1,40,42,-1,44,-1,-1,-1,-1,46,-1,48,50,52,54,-1,56,-1,58,60,62,64,-1,66,68,-1,70,-1,-1,-1,-1,-1,-1,-1,-1,-1,-1,-1,-1,-1,-1,-1,-1,-1,-1,-1,-1,-1,-1,-1,-1],"split_conditions":[6.5693E4,4.417496E4,7.613319E4,0E0,4.411687E4,7.617214E4,7.959491E4,1.62E2,5.3E1,3.9804197E5,6.455226E4,0E0,3.271378E6,8.039785E4,3.0384675E5,-5.5120774E-2,1.81E2,2.74785E3,1E0,1E0,6.5263525E-2,5.5177E4,3.271378E6,-5.033017E-2,7.199562E4,-5.543494E-2,5.478816E-2,6.1104562E-2,-5.4542877E-2,1E0,6.067946E-2,6.04933E3,3.3215166E5,1.0836883E5,1.302152E6,6.1072916E-2,4.5322E4,6.01398E-2,3.271378E6,5.513862E4,6.032037E4,1E0,6.2896304E-2,6.455226E4,7.2495E4,6.0667243E-2,3.2489425E6,5.144406E-2,2.6867975E-2,-1.999144E-2,-5.483091E-2,5.7195056E-2,4.002156E-2,-4.846073E-2,-1.9443823E-2,4.9043596E-2,-7.4003E-2,-5.4763358E-2,5.3526748E-2,4.666707E-2,-6.6850774E-2,6.5707915E-2,4.8614684E-2,5.8036447E-2,-5.4068636E-2,5.833244E-2,6.9857314E-2,-7.873741E-2,6.4703524E-2,6.5538645E-2,6.0558707E-2],"split_indices":[1,8,1,8,1,8,1,1,1,8,8,8,3,8,1,0,1,8,5,5,0,1,3,0,8,0,0,0,0,5,0,3,4,4,4,0,1,0,3,8,8,5,0,8,1,0,4,0,0,0,0,0,0,0,0,0,0,0,0,0,0,0,0,0,0,0,0,0,0,0,0],"split_type":[0,0,0,0,0,0,0,0,0,0,0,0,0,0,0,0,0,0,0,0,0,0,0,0,0,0,0,0,0,0,0,0,0,0,0,0,0,0,0,0,0,0,0,0,0,0,0,0,0,0,0,0,0,0,0,0,0,0,0,0,0,0,0,0,0,0,0,0,0,0,0],"sum_hessian":[1.141335E5,6.923326E4,4.490024E4,7.8886367E3,6.134462E4,2.0549736E3,4.2845266E4,6.7926984E2,7.2093667E3,5.530512E4,6.039501E3,1.2226385E3,8.3233514E2,3.867516E2,4.245851E4,2.7311765E2,4.0615222E2,3.0286508E2,6.906502E3,5.524326E4,6.1858E1,2.1617874E3,3.8777136E3,8.405483E0,1.214233E3,8.2470074E2,7.6344385E0,3.328119E2,5.393971E1,1.3379242E4,2.9079271E4,2.0113037E1,3.8603918E2,1.20240654E2,1.8262444E2,3.9513716E3,2.9551301E3,4.198425E1,5.5201277E4,1.2809419E3,8.8084564E2,3.8664785E3,1.123508E1,9.4265076E2,2.7158228E2,5.9914287E3,7.3878135E3,8.824055E0,1.1288981E1,3.2467523E2,6.1363945E1,6.868965E1,5.1551003E1,1.383144E2,4.431002E1,2.921792E3,3.3338158E1,5.5193855E4,7.422461E0,1.0417872E3,2.3915459E2,5.0050638E2,3.8033923E2,1.0424498E1,3.8560542E3,4.6843112E2,4.7421964E2,2.9541481E1,2.4204079E2,6.9025933E3,4.8522012E2],"tree_param":{"num_deleted":"0","num_feature":"9","num_nodes":"71","size_leaf_vector":"1"}},{"base_weights":[-2.2647727E-2,-8.0182E-1,1.161908E0,8.875406E-1,-1.0212871E0,2.5316238E-1,1.2128291E0,1.1250188E0,-1.1403365E0,-1.0841433E0,-4.246126E-1,1.1898191E0,-1.0881025E0,8.9173937E-1,1.2157631E0,8.111433E-1,6.0193937E-2,-1.3966787E0,-5.5772584E-2,-1.0902586E0,6.008608E-2,7.5229543E-1,-1.1397943E0,1.2527292E0,9.5173466E-1,-5.514362E-2,5.2594837E-2,1.2118106E0,-5.421553E-2,1.2481141E0,6.0050447E-2,-5.1393425E-1,1.2041494E0,-5.418848E-2,-1.5917544E0,-1.0908872E0,8.010631E-2,1.2266881E0,5.3341633E-1,-1.5163207E0,-1.1088525E0,1.3358924E0,1.1987245E0,-5.9159666E-1,1.2615995E0,6.1472572E-2,6.003093E-1,1.2858874E0,6.0038228E-2,5.9690554E-2,-6.9351256E-2,-5.377638E-2,6.0624093E-2,-5.0507057E-2,-8.653568E-2,-5.4567475E-2,5.8104146E-2,5.3519934E-2,6.803265E-2,-7.9097115E-2,4.404411E-2,-6.2224478E-2,-9.8654896E-2,-6.0458034E-2,-5.5152085E-2,6.076646E-2,7.022529E-2,-1.04222074E-1,6.392308E-2,9.832305E-2,-7.3620446E-2,6.587895E-2,4.6722192E-2,-5.1000305E-2,5.424582E-2,6.459592E-2,5.9928317E-2],"categories":[],"categories_nodes":[],"categories_segments":[],"categories_sizes":[],"default_left":[0,0,0,0,0,0,0,0,0,0,0,0,0,0,0,0,0,0,0,0,0,0,0,0,0,0,0,0,0,0,0,0,0,0,0,0,0,0,0,0,0,0,0,0,0,0,0,0,0,0,0,0,0,0,0,0,0,0,0,0,0,0,0,0,0,0,0,0,0,0,0,0,0,0,0,0,0],"id":27,"left_children":[1,3,5,7,9,11,13,15,17,19,21,23,25,27,29,31,-1,33,-1,35,-1,37,39,41,43,-1,-1,45,-1,47,-1,49,51,-1,53,55,-1,57,59,61,63,65,67,69,71,-1,73,75,-1,-1,-1,-1,-1,-1,-1,-1,-1,-1,-1,-1,-1,-1,-1,-1,-1,-1,-1,-1,-1,-1,-1,-1,-1,-1,-1,-1,-1],"loss_changes":[1.01168E5,2.4515242E4,2.0122422E3,3.6625137E3,2.1942266E3,2.902086E3,3.771875E1,1.6748926E2,3.5291748E0,7.4134375E2,4.696413E3,1.9178345E1,3.1186035E1,2.3954501E2,1.7976562E1,7.139133E2,0E0,2.34021E0,0E0,9.110547E1,0E0,2.1835828E2,3.875E1,3.2159424E0,1.386753E2,0E0,0E0,2.7638245E0,0E0,2.1271484E1,0E0,4.6986115E2,2.1376587E1,0E0,1.3949127E0,5.6246094E1,0E0,1.2470154E1,1.0635525E3,2.9928223E1,5.378418E-1,1.7141113E0,1.7546045E2,1.13089005E2,3.1735535E0,0E0,9.788488E0,2.180664E0,0E0,0E0,0E0,0E0,0E0,0E0,0E0,0E0,0E0,0E0,0E0,0E0,0E0,0E0,0E0,0E0,0E0,0E0,0E0,0E0,0E0,0E0,0E0,0E0,0E0,0E0,0E0,0E0,0E0],"parents":[2147483647,0,0,1,1,2,2,3,3,4,4,5,5,6,6,7,7,8,8,9,9,10,10,11,11,12,12,13,13,14,14,15,15,17,17,19,19,21,21,22,22,23,23,24,24,27,27,29,29,31,31,32,32,34,34,35,35,37,37,38,38,39,39,40,40,41,41,42,42,43,43,44,44,46,46,47,47],"right_children":[2,4,6,8,10,12,14,16,18,20,22,24,26,28,30,32,-1,34,-1,36,-1,38,40,42,44,-1,-1,46,-1,48,-1,50,52,-1,54,56,-1,58,60,62,64,66,68,70,72,-1,74,76,-1,-1,-1,-1,-1,-1,-1,-1,-1,-1,-1,-1,-1,-1,-1,-1,-1,-1,-1,-1,-1,-1,-1,-1,-1,-1,-1,-1,-1],"split_conditions":[6.3858E4,4.417496E4,7.613319E4,6.403735E4,4.411687E4,7.622576E4,7.959491E4,1.0023482E0,7.160268E4,1.0023482E0,6.403735E4,7.199562E4,3.271378E6,8.039785E4,1.0023482E0,4.411687E4,6.0193937E-2,0E0,-5.5772584E-2,3.9804197E5,6.008608E-2,5.084513E4,7.07539E4,6.785782E4,7.2495E4,-5.514362E-2,5.2594837E-2,7.993847E4,-5.421553E-2,1E0,6.0050447E-2,2.806E3,-2.83733E4,-5.418848E-2,5.3E1,1E0,8.010631E-2,4.807885E4,5.0768E4,5.645141E4,7.622576E4,1.888722E4,6.7736E4,6.599743E4,7.511361E4,6.1472572E-2,1E0,3.2489425E6,6.0038228E-2,5.9690554E-2,-6.9351256E-2,-5.377638E-2,6.0624093E-2,-5.0507057E-2,-8.653568E-2,-5.4567475E-2,5.8104146E-2,5.3519934E-2,6.803265E-2,-7.9097115E-2,4.404411E-2,-6.2224478E-2,-9.8654896E-2,-6.0458034E-2,-5.5152085E-2,6.076646E-2,7.022529E-2,-1.04222074E-1,6.392308E-2,9.832305E-2,-7.3620446E-2,6.587895E-2,4.6722192E-2,-5.1000305E-2,5.424582E-2,6.459592E-2,5.9928317E-2],"split_indices":[1,8,1,0,1,0,1,7,0,7,0,8,3,8,7,1,0,8,0,8,0,0,0,0,1,0,0,0,0,6,0,0,8,0,1,6,0,1,1,1,0,4,1,0,8,0,6,4,0,0,0,0,0,0,0,0,0,0,0,0,0,0,0,0,0,0,0,0,0,0,0,0,0,0,0,0,0],"split_type":[0,0,0,0,0,0,0,0,0,0,0,0,0,0,0,0,0,0,0,0,0,0,0,0,0,0,0,0,0,0,0,0,0,0,0,0,0,0,0,0,0,0,0,0,0,0,0,0,0,0,0,0,0,0,0,0,0,0,0,0,0,0,0,0,0,0,0,0,0,0,0,0,0,0,0,0,0],"sum_hessian":[1.09609E5,6.61183E4,4.3490703E4,7.601591E3,5.851671E4,2.307987E3,4.1182715E4,6.805111E3,7.9647974E2,5.2939074E4,5.577636E3,1.3590343E3,9.489529E2,3.7566367E2,4.080705E4,1.3687091E3,5.436402E3,6.559984E1,7.308799E2,5.2798348E4,1.4072662E2,2.1082437E3,3.4693923E3,1.0716152E3,2.8741904E2,9.4292957E2,6.0233045E0,3.236303E2,5.2033348E1,1.2755376E4,2.8051676E4,3.1301743E2,1.0556918E3,2.7709063E1,3.7890778E1,5.2786617E4,1.1729025E1,6.641589E2,1.4440848E3,2.5980945E2,3.209583E3,4.1256226E2,6.59053E2,4.790606E1,2.3951297E2,3.1357367E2,1.0056657E1,7.080616E3,5.6747603E3,1.057688E2,2.0724863E2,3.378221E0,1.0523135E3,8.901764E0,2.8989012E1,5.2776305E4,1.0313874E1,3.1068726E2,3.5347165E2,2.0323648E2,1.2408484E3,1.6521397E2,9.459546E1,1.6440887E2,3.045174E3,1.5642113E2,2.5614114E2,1.503055E1,6.440224E2,1.1954681E1,3.5951378E1,2.019329E2,3.7580055E1,2.0609443E0,7.9957128E0,6.6102676E3,4.703486E2],"tree_param":{"num_deleted":"0","num_feature":"9","num_nodes":"77","size_leaf_vector":"1"}},{"base_weights":[-2.1746151E-2,-7.9643124E-1,1.1495645E0,8.7750155E-1,-1.0144475E0,2.513216E-1,1.2000496E0,1.1150151E0,-1.1318564E0,-1.0782391E0,-4.168415E-1,1.1647387E0,-1.0792284E0,8.7938917E-1,1.2030181E0,3.0322763E-1,1.1402895E0,-1.3652931E0,-5.5454623E-2,5.9531387E-2,-1.0829691E0,7.3075736E-1,-1.133448E0,1.2252351E0,9.343883E-1,-5.4852482E-2,5.3142913E-2,1.1847444E0,-5.38898E-2,1.232978E0,5.9464563E-2,5.914518E-2,-7.468079E-1,5.9519995E-2,9.8652923E-1,-5.3902365E-2,-1.5541315E0,-1.0852109E0,6.4502746E-2,1.2038528E0,5.1548296E-1,-1.4897553E0,-1.1031269E0,1.3059796E0,1.1736406E0,-5.6475914E-1,1.2289373E0,1.1940951E0,-3.3933464E-2,1.2680373E0,5.9452385E-2,-5.45793E-2,1.7325161E-2,-7.618208E-2,5.9076946E-2,-4.9671575E-2,-8.384361E-2,-5.428071E-2,5.6447774E-2,6.283196E-2,4.3424044E-2,-7.713895E-2,4.2470254E-2,-6.1651558E-2,-9.402975E-2,-5.9837777E-2,-5.4876614E-2,5.9778985E-2,6.829932E-2,-9.8942205E-2,6.2442053E-2,9.34626E-2,-7.329228E-2,6.3534446E-2,4.8867397E-2,6.022293E-2,3.9091554E-2,6.367694E-2,5.9337836E-2],"categories":[],"categories_nodes":[],"categories_segments":[],"categories_sizes":[],"default_left":[0,0,0,0,0,0,0,0,0,0,0,0,0,0,0,0,0,0,0,0,0,0,0,0,0,0,0,0,0,0,0,0,0,0,0,0,0,0,0,0,0,0,0,0,0,0,0,0,0,0,0,0,0,0,0,0,0,0,0,0,0,0,0,0,0,0,0,0,0,0,0,0,0,0,0,0,0,0,0],"id":28,"left_children":[1,3,5,7,9,11,13,15,17,19,21,23,25,27,29,31,33,35,-1,-1,37,39,41,43,45,-1,-1,47,-1,49,-1,-1,51,-1,53,-1,55,57,-1,59,61,63,65,67,69,71,73,75,-1,77,-1,-1,-1,-1,-1,-1,-1,-1,-1,-1,-1,-1,-1,-1,-1,-1,-1,-1,-1,-1,-1,-1,-1,-1,-1,-1,-1,-1,-1],"loss_changes":[9.530675E4,2.3072781E4,1.8958281E3,3.4783315E3,2.1319453E3,2.706953E3,3.6621094E1,1.3334717E2,2.5809937E0,5.4366797E2,4.438876E3,1.7257446E1,3.578015E1,2.2049963E2,1.4660156E1,1.8387364E2,4.751172E1,1.8039856E0,0E0,0E0,2.6972656E2,2.1071692E2,3.4251953E1,2.8110352E0,1.2384247E2,0E0,0E0,6.347687E0,0E0,1.743164E1,0E0,0E0,3.4651302E1,0E0,7.6493604E2,0E0,8.417969E-1,4.6214844E1,0E0,1.0383667E1,9.8269775E2,2.3539734E1,2.9248047E-1,1.0009766E0,1.5562354E2,1.0468687E2,1.2098389E0,4.1079712E-1,0E0,1.5390625E0,0E0,0E0,0E0,0E0,0E0,0E0,0E0,0E0,0E0,0E0,0E0,0E0,0E0,0E0,0E0,0E0,0E0,0E0,0E0,0E0,0E0,0E0,0E0,0E0,0E0,0E0,0E0,0E0,0E0],"parents":[2147483647,0,0,1,1,2,2,3,3,4,4,5,5,6,6,7,7,8,8,9,9,10,10,11,11,12,12,13,13,14,14,15,15,16,16,17,17,20,20,21,21,22,22,23,23,24,24,27,27,29,29,32,32,34,34,36,36,37,37,39,39,40,40,41,41,42,42,43,43,44,44,45,45,46,46,47,47,49,49],"right_children":[2,4,6,8,10,12,14,16,18,20,22,24,26,28,30,32,34,36,-1,-1,38,40,42,44,46,-1,-1,48,-1,50,-1,-1,52,-1,54,-1,56,58,-1,60,62,64,66,68,70,72,74,76,-1,78,-1,-1,-1,-1,-1,-1,-1,-1,-1,-1,-1,-1,-1,-1,-1,-1,-1,-1,-1,-1,-1,-1,-1,-1,-1,-1,-1,-1,-1],"split_conditions":[6.3858E4,4.417496E4,7.613319E4,6.403735E4,4.411687E4,7.622576E4,7.959491E4,5.3E1,7.160268E4,3.952563E4,6.403735E4,7.199562E4,2.9810803E5,8.039785E4,2.9810803E5,2.39122E4,3.952563E4,0E0,-5.5454623E-2,5.9531387E-2,3.9804197E5,5.084513E4,7.07539E4,6.785782E4,7.2495E4,-5.4852482E-2,5.3142913E-2,1.2342963E5,-5.38898E-2,1E0,5.9464563E-2,5.914518E-2,1.302152E6,5.9519995E-2,3.9099E4,-5.3902365E-2,5.3E1,1E0,6.4502746E-2,4.99145E4,5.0768E4,5.645141E4,7.622576E4,1.8887E4,6.7736E4,6.599743E4,7.511361E4,7.993847E4,-3.3933464E-2,3.2489425E6,5.9452385E-2,-5.45793E-2,1.7325161E-2,-7.618208E-2,5.9076946E-2,-4.9671575E-2,-8.384361E-2,-5.428071E-2,5.6447774E-2,6.283196E-2,4.3424044E-2,-7.713895E-2,4.2470254E-2,-6.1651558E-2,-9.402975E-2,-5.9837777E-2,-5.4876614E-2,5.9778985E-2,6.829932E-2,-9.8942205E-2,6.2442053E-2,9.34626E-2,-7.329228E-2,6.3534446E-2,4.8867397E-2,6.022293E-2,3.9091554E-2,6.367694E-2,5.9337836E-2],"split_indices":[1,8,1,0,1,0,1,1,0,0,0,8,0,8,0,0,0,8,0,0,8,0,0,0,1,0,0,0,0,6,0,0,4,0,1,0,1,6,0,0,1,1,0,8,1,0,8,0,0,4,0,0,0,0,0,0,0,0,0,0,0,0,0,0,0,0,0,0,0,0,0,0,0,0,0,0,0,0,0],"split_type":[0,0,0,0,0,0,0,0,0,0,0,0,0,0,0,0,0,0,0,0,0,0,0,0,0,0,0,0,0,0,0,0,0,0,0,0,0,0,0,0,0,0,0,0,0,0,0,0,0,0,0,0,0,0,0,0,0,0,0,0,0,0,0,0,0,0,0,0,0,0,0,0,0,0,0,0,0,0,0],"sum_hessian":[1.0503114E5,6.321929E4,4.1811848E4,7.2846396E3,5.593465E4,2.2252744E3,3.9586574E4,6.5149893E3,7.6965076E2,5.0539035E4,5.3956113E3,1.3195402E3,9.0573425E2,3.6581616E2,3.9220758E4,1.9710767E2,6.3178813E3,6.3144943E1,7.065058E2,1.0462016E2,5.0434418E4,2.0740828E3,3.3215288E3,1.0416539E3,2.778862E2,8.9874493E2,6.9892864E0,3.167866E2,4.9029587E1,1.2295599E4,2.692516E4,1.07185555E2,8.992211E1,4.7598955E3,1.5579858E3,2.7707443E1,3.54375E1,5.0387355E4,4.7060318E1,6.4719324E2,1.4268895E3,2.567148E2,3.064814E3,3.9662723E2,6.450267E2,4.5482E1,2.324042E2,3.1556223E2,1.2243392E0,6.8227314E3,5.4728667E3,6.836472E1,2.155739E1,1.11820175E2,1.4461656E3,7.997471E0,2.7440031E1,5.037869E4,8.66495E0,5.5680676E2,9.038645E1,1.9867244E2,1.228217E3,1.574489E2,9.926592E1,1.60801E2,2.904013E3,1.4703603E2,2.4959122E2,1.443841E1,6.3058826E2,1.1998163E1,3.3483833E1,1.958517E2,3.655251E1,3.0594974E2,9.612509E0,6.376475E3,4.4625668E2],"tree_param":{"num_deleted":"0","num_feature":"9","num_nodes":"79","size_leaf_vector":"1"}},{"base_weights":[-2.1462727E-2,-5.552279E-1,5.8944114E-2,-7.429296E-1,5.91035E-2,-7.635116E-1,6.024728E-2,-5.6174177E-1,-8.512189E-1,5.805842E-2,-5.671175E-1,-5.1482695E-1,-8.628566E-1,-2.9827414E-2,-2.2131758E-2,5.7422925E-2,-2.7621645E-2,-4.0183123E-2,-4.412314E-2],"categories":[],"categories_nodes":[],"categories_segments":[],"categories_sizes":[],"default_left":[0,0,0,0,0,0,0,0,0,0,0,0,0,0,0,0,0,0,0],"id":29,"left_children":[1,3,-1,5,-1,7,-1,9,11,-1,13,15,17,-1,-1,-1,-1,-1,-1],"loss_changes":[6.456504E4,2.2747287E4,0E0,2.5247969E3,0E0,1.1019453E3,0E0,1.7550244E2,1.6953516E2,0E0,6.868359E1,9.1604065E1,4.799414E1,0E0,0E0,0E0,0E0,0E0,0E0],"parents":[2147483647,0,0,1,1,3,3,5,5,7,7,8,8,10,10,11,11,12,12],"right_children":[2,4,-1,6,-1,8,-1,10,12,-1,14,16,18,-1,-1,-1,-1,-1,-1],"split_conditions":[1.0023482E0,1E0,5.8944114E-2,3.2489425E6,5.91035E-2,1.2257362E5,6.024728E-2,2.806E3,4.99145E4,5.805842E-2,2.4569484E5,2.806E3,9.537018E4,